// Copyright (c) 2015-2016, Massachusetts Institute of Technology
// Copyright (c) 2016-2017 Sandia Corporation
// Copyright (c) 2017 NTESS, LLC.

// This file is part of the Compressed Continuous Computation (C3) Library
// Author: Alex A. Gorodetsky 
// Contact: alex@alexgorodetsky.com

// All rights reserved.

// Redistribution and use in source and binary forms, with or without modification, 
// are permitted provided that the following conditions are met:

// 1. Redistributions of source code must retain the above copyright notice, 
//    this list of conditions and the following disclaimer.

// 2. Redistributions in binary form must reproduce the above copyright notice, 
//    this list of conditions and the following disclaimer in the documentation 
//    and/or other materials provided with the distribution.

// 3. Neither the name of the copyright holder nor the names of its contributors 
//    may be used to endorse or promote products derived from this software 
//    without specific prior written permission.

// THIS SOFTWARE IS PROVIDED BY THE COPYRIGHT HOLDERS AND CONTRIBUTORS "AS IS" 
// AND ANY EXPRESS OR IMPLIED WARRANTIES, INCLUDING, BUT NOT LIMITED TO, THE 
// IMPLIED WARRANTIES OF MERCHANTABILITY AND FITNESS FOR A PARTICULAR PURPOSE ARE 
// DISCLAIMED. IN NO EVENT SHALL THE COPYRIGHT HOLDER OR CONTRIBUTORS BE LIABLE 
// FOR ANY DIRECT, INDIRECT, INCIDENTAL, SPECIAL, EXEMPLARY, OR CONSEQUENTIAL 
// DAMAGES (INCLUDING, BUT NOT LIMITED TO, PROCUREMENT OF SUBSTITUTE GOODS OR 
// SERVICES; LOSS OF USE, DATA, OR PROFITS; OR BUSINESS INTERRUPTION) HOWEVER 
// CAUSED AND ON ANY THEORY OF LIABILITY, WHETHER IN CONTRACT, STRICT LIABILITY, 
// OR TORT (INCLUDING NEGLIGENCE OR OTHERWISE) ARISING IN ANY WAY OUT OF THE USE 
// OF THIS SOFTWARE, EVEN IF ADVISED OF THE POSSIBILITY OF SUCH DAMAGE.

//Code



#include "legquadrules.h" 
#include <string.h> 
 
static double w1[1] = { 1.0 };
static double pts1[1] = { 0.0 };

static double w2[2] = {0.4999999999999999,0.4999999999999999};
static double pts2[2] = {-0.5773502691896258,0.5773502691896258};

static double w3[3] = {0.2777777777777777,0.4444444444444443,0.2777777777777778};
static double pts3[3] = {-0.7745966692414835,0.0000000000000000,0.7745966692414834};

static double w4[4] = {0.1739274225687271,0.3260725774312732,0.3260725774312730,0.1739274225687270};
static double pts4[4] = {-0.8611363115940526,-0.3399810435848564,0.3399810435848562,0.8611363115940527};

static double w5[5] = {0.1184634425280946,0.2393143352496834,0.2844444444444444,0.2393143352496834,0.1184634425280944};
static double pts5[5] = {-0.9061798459386639,-0.5384693101056831,0.0000000000000000,0.5384693101056830,0.9061798459386639};

static double w6[6] = {0.0856622461895853,0.1803807865240693,0.2339569672863452,0.2339569672863459,0.1803807865240693,0.0856622461895852};
static double pts6[6] = {-0.9324695142031521,-0.6612093864662645,-0.2386191860831970,0.2386191860831970,0.6612093864662645,0.9324695142031523};

static double w7[7] = {0.0647424830844348,0.1398526957446384,0.1909150252525594,0.2089795918367343,0.1909150252525595,0.1398526957446383,0.0647424830844349};
static double pts7[7] = {-0.9491079123427584,-0.7415311855993945,-0.4058451513773971,-0.0000000000000001,0.4058451513773972,0.7415311855993946,0.9491079123427585};

static double w8[8] = {0.0506142681451882,0.1111905172266873,0.1568533229389437,0.1813418916891811,0.1813418916891812,0.1568533229389436,0.1111905172266873,0.0506142681451883};
static double pts8[8] = {-0.9602898564975362,-0.7966664774136267,-0.5255324099163288,-0.1834346424956498,0.1834346424956501,0.5255324099163288,0.7966664774136268,0.9602898564975361};

static double w9[9] = {0.0406371941807873,0.0903240803474288,0.1303053482014676,0.1561735385200012,0.1651196775006297,0.1561735385200011,0.1303053482014678,0.0903240803474287,0.0406371941807873};
static double pts9[9] = {-0.9681602395076260,-0.8360311073266355,-0.6133714327005904,-0.3242534234038089,0.0000000000000001,0.3242534234038087,0.6133714327005906,0.8360311073266357,0.9681602395076261};

static double w10[10] = {0.0333356721543442,0.0747256745752904,0.1095431812579906,0.1346333596549982,0.1477621123573762,0.1477621123573765,0.1346333596549982,0.1095431812579911,0.0747256745752904,0.0333356721543442};
static double pts10[10] = {-0.9739065285171714,-0.8650633666889846,-0.6794095682990245,-0.4333953941292472,-0.1488743389816313,0.1488743389816314,0.4333953941292471,0.6794095682990244,0.8650633666889844,0.9739065285171716};

static double w11[11] = {0.0278342835580868,0.0627901847324523,0.0931451054638672,0.1165968822959954,0.1314022722551235,0.1364625433889503,0.1314022722551232,0.1165968822959957,0.0931451054638668,0.0627901847324522,0.0278342835580869};
static double pts11[11] = {-0.9782286581460568,-0.8870625997680955,-0.7301520055740495,-0.5190961292068119,-0.2695431559523451,-0.0000000000000002,0.2695431559523450,0.5190961292068119,0.7301520055740494,0.8870625997680954,0.9782286581460571};

static double w12[12] = {0.0235876681932558,0.0534696629976594,0.0800391642716730,0.1015837133615329,0.1167462682691773,0.1245735229067018,0.1245735229067015,0.1167462682691769,0.1015837133615330,0.0800391642716730,0.0534696629976593,0.0235876681932558};
static double pts12[12] = {-0.9815606342467195,-0.9041172563704749,-0.7699026741943048,-0.5873179542866177,-0.3678314989981800,-0.1252334085114689,0.1252334085114689,0.3678314989981802,0.5873179542866174,0.7699026741943049,0.9041172563704750,0.9815606342467191};

static double w13[13] = {0.0202420023826576,0.0460607499188645,0.0694367551098935,0.0890729903809729,0.1039080237684444,0.1131415901314486,0.1162757766154369,0.1131415901314481,0.1039080237684443,0.0890729903809731,0.0694367551098938,0.0460607499188642,0.0202420023826577};
static double pts13[13] = {-0.9841830547185887,-0.9175983992229778,-0.8015780907333097,-0.6423493394403406,-0.4484927510364470,-0.2304583159551345,0.0000000000000001,0.2304583159551350,0.4484927510364468,0.6423493394403401,0.8015780907333099,0.9175983992229778,0.9841830547185885};

static double w14[14] = {0.0175597301658761,0.0400790435798799,0.0607592853439519,0.0786015835790966,0.0927691987389688,0.1025992318606476,0.1076319267315791,0.1076319267315788,0.1025992318606479,0.0927691987389690,0.0786015835790969,0.0607592853439514,0.0400790435798807,0.0175597301658758};
static double pts14[14] = {-0.9862838086968120,-0.9284348836635736,-0.8272013150697651,-0.6872929048116855,-0.5152486363581543,-0.3191123689278899,-0.1080549487073440,0.1080549487073438,0.3191123689278899,0.5152486363581543,0.6872929048116854,0.8272013150697650,0.9284348836635736,0.9862838086968125};

static double w15[15] = {0.0153766209980584,0.0351830237440544,0.0535796102335859,0.0697853389630773,0.0831346029084970,0.0930805000077811,0.0992157426635560,0.1012891209627804,0.0992157426635557,0.0930805000077809,0.0831346029084974,0.0697853389630772,0.0535796102335862,0.0351830237440544,0.0153766209980584};
static double pts15[15] = {-0.9879925180204855,-0.9372733924007061,-0.8482065834104273,-0.7244177313601702,-0.5709721726085388,-0.3941513470775633,-0.2011940939974347,-0.0000000000000001,0.2011940939974343,0.3941513470775630,0.5709721726085389,0.7244177313601704,0.8482065834104273,0.9372733924007057,0.9879925180204858};

static double w16[16] = {0.0135762297058773,0.0311267619693235,0.0475792558412463,0.0623144856277671,0.0747979944082882,0.0845782596975014,0.0913017075224623,0.0947253052275341,0.0947253052275344,0.0913017075224619,0.0845782596975014,0.0747979944082887,0.0623144856277674,0.0475792558412462,0.0311267619693240,0.0135762297058772};
static double pts16[16] = {-0.9894009349916495,-0.9445750230732327,-0.8656312023878319,-0.7554044083550033,-0.6178762444026443,-0.4580167776572275,-0.2816035507792588,-0.0950125098376372,0.0950125098376372,0.2816035507792590,0.4580167776572271,0.6178762444026440,0.7554044083550031,0.8656312023878318,0.9445750230732326,0.9894009349916498};

static double w17[17] = {0.0120741514342740,0.0277297646869937,0.0425180741585895,0.0559419235967019,0.0675681842342630,0.0770228805384049,0.0840020510782251,0.0882813526834962,0.0897232351781032,0.0882813526834961,0.0840020510782252,0.0770228805384053,0.0675681842342623,0.0559419235967022,0.0425180741585899,0.0277297646869937,0.0120741514342739};
static double pts17[17] = {-0.9905754753144171,-0.9506755217687678,-0.8802391537269858,-0.7815140038968015,-0.6576711592166908,-0.5126905370864770,-0.3512317634538764,-0.1784841814958480,-0.0000000000000002,0.1784841814958474,0.3512317634538763,0.5126905370864772,0.6576711592166911,0.7815140038968015,0.8802391537269861,0.9506755217687676,0.9905754753144173};

static double w18[18] = {0.0108080067632417,0.0248572744474849,0.0382128651274447,0.0504710220531435,0.0612776033557392,0.0703214573353252,0.0773423375631326,0.0821382418729163,0.0845711914815718,0.0845711914815718,0.0821382418729163,0.0773423375631326,0.0703214573353255,0.0612776033557394,0.0504710220531432,0.0382128651274444,0.0248572744474851,0.0108080067632418};
static double pts18[18] = {-0.9915651684209309,-0.9558239495713976,-0.8926024664975554,-0.8037049589725227,-0.6916870430603530,-0.5597708310739472,-0.4117511614628424,-0.2518862256915053,-0.0847750130417348,0.0847750130417355,0.2518862256915057,0.4117511614628421,0.5597708310739474,0.6916870430603529,0.8037049589725225,0.8926024664975556,0.9558239495713975,0.9915651684209305};

static double w19[19] = {0.0097308941148634,0.0224071133828498,0.0345222713688204,0.0457450108112249,0.0557833227736673,0.0643769812696680,0.0713033510868030,0.0763830210329302,0.0794844216969770,0.0805272249243916,0.0794844216969771,0.0763830210329298,0.0713033510868033,0.0643769812696676,0.0557833227736671,0.0457450108112252,0.0345222713688210,0.0224071133828492,0.0097308941148632};
static double pts19[19] = {-0.9924068438435842,-0.9602081521348296,-0.9031559036148177,-0.8227146565371428,-0.7209661773352295,-0.6005453046616810,-0.4645707413759610,-0.3165640999636299,-0.1603586456402254,-0.0000000000000001,0.1603586456402255,0.3165640999636300,0.4645707413759608,0.6005453046616810,0.7209661773352292,0.8227146565371426,0.9031559036148178,0.9602081521348299,0.9924068438435844};

static double w20[20] = {0.0088070035695761,0.0203007149001932,0.0313360241670550,0.0416383707883523,0.0509650599086204,0.0590972659807592,0.0658443192245883,0.0710480546591912,0.0745864932363019,0.0763766935653628,0.0763766935653633,0.0745864932363020,0.0710480546591911,0.0658443192245881,0.0590972659807592,0.0509650599086208,0.0416383707883521,0.0313360241670543,0.0203007149001934,0.0088070035695762};
static double pts20[20] = {-0.9931285991850950,-0.9639719272779141,-0.9122344282513262,-0.8391169718222189,-0.7463319064601507,-0.6360536807265150,-0.5108670019508273,-0.3737060887154193,-0.2277858511416449,-0.0765265211334970,0.0765265211334976,0.2277858511416457,0.3737060887154197,0.5108670019508270,0.6360536807265151,0.7463319064601507,0.8391169718222188,0.9122344282513259,0.9639719272779139,0.9931285991850950};

static double w21[21] = {0.0080086141288873,0.0184768948854261,0.0285672127134281,0.0380500568141902,0.0467222117280171,0.0543986495835740,0.0609157080268645,0.0661344693166687,0.0699436973955365,0.0722622019949850,0.0730405668248452,0.0722622019949849,0.0699436973955368,0.0661344693166687,0.0609157080268644,0.0543986495835743,0.0467222117280170,0.0380500568141894,0.0285672127134291,0.0184768948854260,0.0080086141288873};
static double pts21[21] = {-0.9937521706203895,-0.9672268385663063,-0.9200993341504012,-0.8533633645833174,-0.7684399634756779,-0.6671388041974121,-0.5516188358872202,-0.4243421202074387,-0.2880213168024012,-0.1455618541608955,-0.0000000000000001,0.1455618541608949,0.2880213168024014,0.4243421202074388,0.5516188358872199,0.6671388041974120,0.7684399634756781,0.8533633645833174,0.9200993341504008,0.9672268385663064,0.9937521706203897};

static double w22[22] = {0.0073139976491362,0.0168874507924071,0.0261466675763415,0.0348982342122603,0.0429708031085335,0.0502070722214404,0.0564661480402697,0.0616261884052561,0.0655867523935311,0.0682707491730077,0.0696259364278158,0.0696259364278162,0.0682707491730074,0.0655867523935312,0.0616261884052566,0.0564661480402698,0.0502070722214399,0.0429708031085336,0.0348982342122604,0.0261466675763418,0.0168874507924073,0.0073139976491360};
static double pts22[22] = {-0.9942945854823989,-0.9700604978354284,-0.9269567721871741,-0.8658125777203003,-0.7878168059792082,-0.6944872631866829,-0.5876404035069115,-0.4693558379867571,-0.3419358208920846,-0.2078604266882216,-0.0697392733197226,0.0697392733197219,0.2078604266882211,0.3419358208920846,0.4693558379867571,0.5876404035069118,0.6944872631866829,0.7878168059792083,0.8658125777203004,0.9269567721871741,0.9700604978354289,0.9942945854823991};

static double w23[23] = {0.0067059297435710,0.0154940029284895,0.0240188358655424,0.0321162107042633,0.0396407058883594,0.0464578830300178,0.0524460457322704,0.0574983201112058,0.0615245421533647,0.0644528610940411,0.0662310197023482,0.0668272860930527,0.0662310197023482,0.0644528610940410,0.0615245421533648,0.0574983201112057,0.0524460457322708,0.0464578830300178,0.0396407058883596,0.0321162107042623,0.0240188358655428,0.0154940029284895,0.0067059297435708};
static double pts23[23] = {-0.9947693349975520,-0.9725424712181151,-0.9329710868260164,-0.8767523582704415,-0.8048884016188400,-0.7186613631319498,-0.6196098757636460,-0.5095014778460073,-0.3903010380302909,-0.2641356809703448,-0.1332568242984663,-0.0000000000000002,0.1332568242984660,0.2641356809703449,0.3903010380302909,0.5095014778460076,0.6196098757636460,0.7186613631319502,0.8048884016188397,0.8767523582704415,0.9329710868260160,0.9725424712181150,0.9947693349975520};

static double w24[24] = {0.0061706148999935,0.0142656943144669,0.0221387194087100,0.0296492924577182,0.0366732407055403,0.0430950807659767,0.0488093260520571,0.0537221350579827,0.0577528340268628,0.0608352364639017,0.0629187281734138,0.0639690976733762,0.0639690976733762,0.0629187281734140,0.0608352364639015,0.0577528340268631,0.0537221350579827,0.0488093260520571,0.0430950807659767,0.0366732407055400,0.0296492924577184,0.0221387194087102,0.0142656943144666,0.0061706148999939};
static double pts24[24] = {-0.9951872199970215,-0.9747285559713099,-0.9382745520027330,-0.8864155270044012,-0.8200019859739028,-0.7401241915785545,-0.6480936519369753,-0.5454214713888395,-0.4337935076260454,-0.3150426796961637,-0.1911188674736164,-0.0640568928626056,0.0640568928626054,0.1911188674736169,0.3150426796961636,0.4337935076260452,0.5454214713888393,0.6480936519369753,0.7401241915785546,0.8200019859739028,0.8864155270044011,0.9382745520027326,0.9747285559713097,0.9951872199970212};

static double w25[25] = {0.0056968992505132,0.0131774933075158,0.0204695783506536,0.0274523479879177,0.0340191669061787,0.0400703501675001,0.0455141309914818,0.0502679745335253,0.0542598122371319,0.0574291295728559,0.0597278817678920,0.0611212214951551,0.0615880268633577,0.0611212214951551,0.0597278817678924,0.0574291295728557,0.0542598122371320,0.0502679745335254,0.0455141309914818,0.0400703501675003,0.0340191669061786,0.0274523479879178,0.0204695783506530,0.0131774933075159,0.0056968992505131};
static double pts25[25] = {-0.9955569697904982,-0.9766639214595177,-0.9429745712289743,-0.8949919978782752,-0.8334426287608336,-0.7592592630373574,-0.6735663684734684,-0.5776629302412231,-0.4730027314457153,-0.3611723058093878,-0.2438668837209886,-0.1228646926107102,-0.0000000000000000,0.1228646926107100,0.2438668837209885,0.3611723058093877,0.4730027314457150,0.5776629302412228,0.6735663684734681,0.7592592630373579,0.8334426287608342,0.8949919978782755,0.9429745712289740,0.9766639214595175,0.9955569697904981};

static double w26[26] = {0.0052756863086714,0.0122089255463162,0.0189811916471810,0.0254879126485739,0.0316370231647874,0.0373420748828300,0.0425229471567425,0.0471069001779572,0.0510295805472128,0.0542359202642885,0.0566809082731598,0.0583302217426483,0.0591607076396313,0.0591607076396308,0.0583302217426484,0.0566809082731599,0.0542359202642879,0.0510295805472128,0.0471069001779575,0.0425229471567429,0.0373420748828296,0.0316370231647875,0.0254879126485742,0.0189811916471813,0.0122089255463157,0.0052756863086718};
static double pts26[26] = {-0.9958857011456174,-0.9783854459564709,-0.9471590666617142,-0.9026378619843074,-0.8454459427884981,-0.7763859488206788,-0.6964272604199574,-0.6066922930176184,-0.5084407148245059,-0.4030517551234858,-0.2920048394859574,-0.1768588203568903,-0.0592300934293129,0.0592300934293135,0.1768588203568903,0.2920048394859569,0.4030517551234865,0.5084407148245064,0.6066922930176184,0.6964272604199572,0.7763859488206794,0.8454459427884983,0.9026378619843073,0.9471590666617141,0.9783854459564708,0.9958857011456168};

static double w27[27] = {0.0048994980256472,0.0113431157980902,0.0176485268787101,0.0237247062603074,0.0294917684299168,0.0348744118831227,0.0398024338865288,0.0442115792718782,0.0480443636850146,0.0512508189088729,0.0537891428942666,0.0556262441784226,0.0567381730544825,0.0571104336894788,0.0567381730544826,0.0556262441784227,0.0537891428942669,0.0512508189088728,0.0480443636850144,0.0442115792718785,0.0398024338865285,0.0348744118831232,0.0294917684299166,0.0237247062603074,0.0176485268787097,0.0113431157980905,0.0048994980256472};
static double pts27[27] = {-0.9961792628889885,-0.9799234759615018,-0.9509005578147048,-0.9094823206774915,-0.8562079080182945,-0.7917716390705084,-0.7170134737394238,-0.6329079719464952,-0.5405515645794573,-0.4411482517500268,-0.3359939036385089,-0.2264593654395370,-0.1139725856095301,-0.0000000000000000,0.1139725856095302,0.2264593654395368,0.3359939036385092,0.4411482517500269,0.5405515645794570,0.6329079719464951,0.7170134737394240,0.7917716390705084,0.8562079080182943,0.9094823206774914,0.9509005578147054,0.9799234759615016,0.9961792628889888};

static double w28[28] = {0.0045621412965475,0.0105660562963857,0.0164507138911519,0.0221364673795018,0.0275536728378586,0.0326364619834997,0.0373231071172846,0.0415567086144505,0.0452858721965163,0.0484653289989655,0.0510564837890303,0.0530278829614232,0.0543555961291471,0.0550235065082374,0.0550235065082377,0.0543555961291468,0.0530278829614231,0.0510564837890300,0.0484653289989650,0.0452858721965160,0.0415567086144508,0.0373231071172845,0.0326364619834996,0.0275536728378584,0.0221364673795023,0.0164507138911522,0.0105660562963853,0.0045621412965473};
static double pts28[28] = {-0.9964424975739538,-0.9813031653708723,-0.9542592806289378,-0.9156330263921325,-0.8658925225743954,-0.8056413709171796,-0.7356108780136320,-0.6566510940388652,-0.5697204718114018,-0.4758742249551187,-0.3762515160890789,-0.2720616276351782,-0.1645692821333809,-0.0550792898840342,0.0550792898840342,0.1645692821333806,0.2720616276351779,0.3762515160890784,0.4758742249551181,0.5697204718114021,0.6566510940388650,0.7356108780136317,0.8056413709171794,0.8658925225743955,0.9156330263921322,0.9542592806289385,0.9813031653708731,0.9964424975739550};

static double w29[29] = {0.0042584519393730,0.0098660425280615,0.0153702461010466,0.0207010312593416,0.0257974134512492,0.0306015453285392,0.0350589666275258,0.0391191635678820,0.0427361286830863,0.0458688785696292,0.0484819170472046,0.0505456368799575,0.0520366550388646,0.0529380775486603,0.0532396908591571,0.0529380775486601,0.0520366550388645,0.0505456368799574,0.0484819170472041,0.0458688785696292,0.0427361286830863,0.0391191635678817,0.0350589666275258,0.0306015453285396,0.0257974134512492,0.0207010312593418,0.0153702461010468,0.0098660425280615,0.0042584519393732};
static double pts29[29] = {-0.9966794422605966,-0.9825455052614132,-0.9572855957780876,-0.9211802329530584,-0.8746378049201027,-0.8181854876152527,-0.7524628517344772,-0.6782145376026866,-0.5962817971382277,-0.5075929551242275,-0.4131528881740090,-0.3140316378676396,-0.2113522861660016,-0.1062782301326796,0.0000000000000000,0.1062782301326790,0.2113522861660009,0.3140316378676399,0.4131528881740087,0.5075929551242276,0.5962817971382282,0.6782145376026867,0.7524628517344775,0.8181854876152528,0.8746378049201028,0.9211802329530586,0.9572855957780878,0.9825455052614133,0.9966794422605966};

static double w30[30] = {0.0039840962480834,0.0092332341555453,0.0143923539416616,0.0193995962848137,0.0242013364152971,0.0287465781088094,0.0329871149410904,0.0368779873688524,0.0403779476147098,0.0434498936005418,0.0460612611188930,0.0481843685873223,0.0497967102933976,0.0508811948742026,0.0514263264467794,0.0514263264467788,0.0508811948742027,0.0497967102933980,0.0481843685873222,0.0460612611188930,0.0434498936005413,0.0403779476147101,0.0368779873688528,0.0329871149410900,0.0287465781088092,0.0242013364152973,0.0193995962848139,0.0143923539416618,0.0092332341555454,0.0039840962480834};
static double pts30[30] = {-0.9968934840746494,-0.9836681232797473,-0.9600218649683073,-0.9262000474292742,-0.8825605357920530,-0.8295657623827684,-0.7677774321048264,-0.6978504947933157,-0.6205261829892433,-0.5366241481420203,-0.4470337695380895,-0.3527047255308783,-0.2546369261678896,-0.1538699136085835,-0.0514718425553175,0.0514718425553181,0.1538699136085838,0.2546369261678897,0.3527047255308783,0.4470337695380894,0.5366241481420200,0.6205261829892429,0.6978504947933158,0.7677774321048262,0.8295657623827685,0.8825605357920526,0.9262000474292740,0.9600218649683074,0.9836681232797471,0.9968934840746495};

static double w31[31] = {0.0037354157896246,0.0086593103951554,0.0135045095924895,0.0182161369561931,0.0227468537636006,0.0270515412124583,0.0310873932805141,0.0348142916177050,0.0381951932993883,0.0411964958807945,0.0437883703042391,0.0459450569468207,0.0476451214561593,0.0488716676931645,0.0496125056133362,0.0498602723967134,0.0496125056133361,0.0488716676931643,0.0476451214561597,0.0459450569468209,0.0437883703042392,0.0411964958807941,0.0381951932993883,0.0348142916177053,0.0310873932805140,0.0270515412124586,0.0227468537636004,0.0182161369561927,0.0135045095924897,0.0086593103951555,0.0037354157896245};
static double pts31[31] = {-0.9970874818194767,-0.9846859096651522,-0.9625039250929491,-0.9307569978966479,-0.8897600299482705,-0.8399203201462675,-0.7817331484166248,-0.7157767845868532,-0.6427067229242605,-0.5632491614071492,-0.4781937820449027,-0.3883859016082332,-0.2947180699817019,-0.1981211993355707,-0.0995553121523416,-0.0000000000000003,0.0995553121523412,0.1981211993355704,0.2947180699817018,0.3883859016082328,0.4781937820449025,0.5632491614071492,0.6427067229242601,0.7157767845868529,0.7817331484166247,0.8399203201462677,0.8897600299482711,0.9307569978966485,0.9625039250929499,0.9846859096651527,0.9970874818194772};

static double w32[32] = {0.0035093050047350,0.0081371973654526,0.0126960326546313,0.0171369314565105,0.0214179490111137,0.0254990296311881,0.0293420467392677,0.0329111113881808,0.0361728970544243,0.0390969478935350,0.0416559621134735,0.0438260465022020,0.0455869393478822,0.0469221995404019,0.0478193600396371,0.0482700442573641,0.0482700442573635,0.0478193600396371,0.0469221995404022,0.0455869393478818,0.0438260465022020,0.0416559621134733,0.0390969478935358,0.0361728970544242,0.0329111113881806,0.0293420467392677,0.0254990296311881,0.0214179490111134,0.0171369314565111,0.0126960326546314,0.0081371973654531,0.0035093050047350};
static double pts32[32] = {-0.9972638618494818,-0.9856115115452684,-0.9647622555875064,-0.9349060759377398,-0.8963211557660524,-0.8493676137325699,-0.7944837959679423,-0.7321821187402896,-0.6630442669302151,-0.5877157572407627,-0.5068999089322292,-0.4213512761306352,-0.3318686022821278,-0.2392873622521368,-0.1444719615827965,-0.0483076656877387,0.0483076656877381,0.1444719615827966,0.2392873622521369,0.3318686022821275,0.4213512761306356,0.5068999089322295,0.5877157572407626,0.6630442669302149,0.7321821187402898,0.7944837959679425,0.8493676137325703,0.8963211557660523,0.9349060759377397,0.9647622555875064,0.9856115115452680,0.9972638618494815};

static double w33[33] = {0.0033031139237939,0.0076608507564672,0.0119577740508748,0.0161501793161646,0.0202007706658349,0.0240738714093559,0.0277354233158315,0.0311532412651587,0.0342972864093283,0.0371399274219777,0.0396561823974429,0.0418239380335193,0.0436241438094220,0.0450409793303195,0.0460619933216585,0.0466782130327978,0.0468842230801048,0.0466782130327982,0.0460619933216580,0.0450409793303191,0.0436241438094223,0.0418239380335196,0.0396561823974433,0.0371399274219773,0.0342972864093284,0.0311532412651590,0.0277354233158325,0.0240738714093556,0.0202007706658346,0.0161501793161644,0.0119577740508746,0.0076608507564670,0.0033031139237935};
static double pts33[33] = {-0.9974246942464550,-0.9864557262306427,-0.9668229096899932,-0.9386943726111682,-0.9023167677434335,-0.8580096526765039,-0.8061623562741663,-0.7472304964495621,-0.6817319599697427,-0.6102423458363788,-0.5333899047863476,-0.4518500172724506,-0.3663392577480734,-0.2776090971524968,-0.1864392988279917,-0.0936310658547335,0.0000000000000001,0.0936310658547331,0.1864392988279915,0.2776090971524968,0.3663392577480734,0.4518500172724506,0.5333899047863475,0.6102423458363790,0.6817319599697430,0.7472304964495623,0.8061623562741663,0.8580096526765038,0.9023167677434336,0.9386943726111682,0.9668229096899927,0.9864557262306425,0.9974246942464552};

static double w34[34] = {0.0031145702779543,0.0072250813742975,0.0112818609927476,0.0152456903192227,0.0190832968981938,0.0227628057616768,0.0262537072863392,0.0295270679137622,0.0325557607770380,0.0353146879071278,0.0377809873300162,0.0399342221698858,0.0417565498499229,0.0432328698735178,0.0443509489178472,0.0451015221853201,0.0454783701651296,0.0454783701651298,0.0451015221853202,0.0443509489178470,0.0432328698735180,0.0417565498499232,0.0399342221698857,0.0377809873300161,0.0353146879071279,0.0325557607770381,0.0295270679137620,0.0262537072863391,0.0227628057616767,0.0190832968981938,0.0152456903192233,0.0112818609927474,0.0072250813742979,0.0031145702779543};
static double pts34[34] = {-0.9975717537908421,-0.9872278164063093,-0.9687082625333444,-0.9421623974051068,-0.9078096777183247,-0.8659346383345644,-0.8168842279009337,-0.7610648766298730,-0.6989391132162628,-0.6310217270805286,-0.5578755006697469,-0.4801065451903272,-0.3983592777586460,-0.3133110813394634,-0.2256666916164497,-0.1361523572591827,-0.0455098219531027,0.0455098219531026,0.1361523572591831,0.2256666916164493,0.3133110813394632,0.3983592777586456,0.4801065451903266,0.5578755006697467,0.6310217270805283,0.6989391132162628,0.7610648766298730,0.8168842279009340,0.8659346383345642,0.9078096777183248,0.9421623974051073,0.9687082625333441,0.9872278164063095,0.9975717537908420};

static double w35[35] = {0.0029417167102220,0.0068254141741803,0.0106614899557417,0.0144146300544469,0.0180550579317321,0.0215542111630851,0.0248846852006767,0.0280204081061851,0.0309368359830399,0.0336111426345436,0.0360223973862800,0.0381517285777210,0.0399824711211623,0.0415002968644283,0.0426933266960495,0.0435522234985917,0.0440702652151380,0.0442433974535521,0.0440702652151373,0.0435522234985919,0.0426933266960494,0.0415002968644283,0.0399824711211621,0.0381517285777214,0.0360223973862799,0.0336111426345434,0.0309368359830402,0.0280204081061849,0.0248846852006767,0.0215542111630847,0.0180550579317318,0.0144146300544473,0.0106614899557414,0.0068254141741809,0.0029417167102216};
static double pts35[35] = {-0.9977065690995999,-0.9879357644438514,-0.9704376160392298,-0.9453451482078276,-0.9128542613593175,-0.8732191250252223,-0.8267498990922252,-0.7738102522869125,-0.7148145015566288,-0.6502243646658904,-0.5805453447497647,-0.5063227732414884,-0.4281375415178144,-0.3466015544308134,-0.2623529412092962,-0.1760510611659900,-0.0883713432756593,-0.0000000000000002,0.0883713432756595,0.1760510611659901,0.2623529412092966,0.3466015544308146,0.4281375415178147,0.5063227732414888,0.5805453447497640,0.6502243646658904,0.7148145015566286,0.7738102522869125,0.8267498990922250,0.8732191250252223,0.9128542613593174,0.9453451482078274,0.9704376160392297,0.9879357644438513,0.9977065690996001};

static double w36[36] = {0.0027828598321225,0.0064579736420328,0.0100907576488678,0.0136493107492847,0.0171069053851537,0.0204378754618220,0.0236175417451330,0.0266223569888802,0.0294300721226622,0.0320198986775080,0.0343726619178679,0.0364709425028268,0.0382992053229354,0.0398439144560359,0.0410936333521697,0.0420391094898309,0.0426733428696690,0.0429916378351973,0.0429916378351971,0.0426733428696697,0.0420391094898313,0.0410936333521696,0.0398439144560359,0.0382992053229351,0.0364709425028266,0.0343726619178681,0.0320198986775075,0.0294300721226623,0.0266223569888794,0.0236175417451330,0.0204378754618231,0.0171069053851537,0.0136493107492841,0.0100907576488677,0.0064579736420328,0.0027828598321224};
static double pts36[36] = {-0.9978304624840861,-0.9885864789022125,-0.9720276910496980,-0.9482729843995074,-0.9174977745156591,-0.8799298008903972,-0.8358471669924752,-0.7855762301322066,-0.7294891715935563,-0.6680012365855209,-0.6015676581359805,-0.5306802859262451,-0.4558639444334198,-0.3776725471196891,-0.2966849953440287,-0.2135008923168655,-0.1287361038093848,-0.0430181984737083,0.0430181984737088,0.1287361038093848,0.2135008923168654,0.2966849953440281,0.3776725471196891,0.4558639444334200,0.5306802859262455,0.6015676581359806,0.6680012365855207,0.7294891715935565,0.7855762301322067,0.8358471669924756,0.8799298008903971,0.9174977745156589,0.9482729843995075,0.9720276910496978,0.9885864789022121,0.9978304624840859};

static double w37[37] = {0.0026365286397492,0.0061193900501538,0.0095645222445418,0.0129430184952793,0.0162308199237608,0.0194048012509671,0.0224426823312189,0.0253231488274123,0.0280259939991372,0.0305322582616131,0.0328243614363756,0.0348862257778504,0.0367033886242439,0.0382631037852646,0.0395544309187649,0.0405683122542325,0.0412976361182185,0.0417372868129315,0.0418841804965694,0.0417372868129314,0.0412976361182185,0.0405683122542324,0.0395544309187651,0.0382631037852643,0.0367033886242444,0.0348862257778498,0.0328243614363760,0.0305322582616125,0.0280259939991377,0.0253231488274127,0.0224426823312185,0.0194048012509670,0.0162308199237614,0.0129430184952796,0.0095645222445420,0.0061193900501541,0.0026365286397487};
static double pts37[37] = {-0.9979445824779136,-0.9891859632143191,-0.9734930300564864,-0.9509723432620951,-0.9217814374124637,-0.8861249621554863,-0.8442529873405559,-0.7964592005099020,-0.7430788339819653,-0.6844863091309596,-0.6210926084089244,-0.5533423918615820,-0.4817108778032057,-0.4067005093183262,-0.3288374298837073,-0.2486677927913654,-0.1667539302398521,-0.0836704089547700,0.0000000000000002,0.0836704089547698,0.1667539302398520,0.2486677927913658,0.3288374298837070,0.4067005093183262,0.4817108778032054,0.5533423918615819,0.6210926084089243,0.6844863091309600,0.7430788339819652,0.7964592005099025,0.8442529873405558,0.8861249621554864,0.9217814374124641,0.9509723432620947,0.9734930300564857,0.9891859632143193,0.9979445824779137};

static double w38[38] = {0.0025014403748195,0.0058067223582345,0.0090782888548063,0.0122898698691165,0.0154197502725876,0.0184470407970123,0.0213515792523372,0.0241140309303797,0.0267160099551657,0.0291401995734988,0.0313704666960662,0.0333919689895702,0.0351912535334498,0.0367563462923718,0.0380768317742233,0.0391439223291054,0.0399505166217641,0.0404912468852983,0.0407625146401933,0.0407625146401925,0.0404912468852987,0.0399505166217643,0.0391439223291056,0.0380768317742227,0.0367563462923718,0.0351912535334490,0.0333919689895703,0.0313704666960667,0.0291401995734988,0.0267160099551666,0.0241140309303790,0.0213515792523373,0.0184470407970125,0.0154197502725876,0.0122898698691162,0.0090782888548068,0.0058067223582343,0.0025014403748196};
static double pts38[38] = {-0.9980499305356881,-0.9897394542663855,-0.9748463285901539,-0.9534663309335299,-0.9257413320485843,-0.8918557390046324,-0.8520350219323622,-0.8065441676053169,-0.7556859037539707,-0.6997986803791842,-0.6392544158296818,-0.5744560210478072,-0.5058347179279311,-0.4338471694323771,-0.3589724404794346,-0.2817088097901650,-0.2025704538921165,-0.1220840253378675,-0.0407851479045784,0.0407851479045784,0.1220840253378676,0.2025704538921170,0.2817088097901652,0.3589724404794351,0.4338471694323766,0.5058347179279311,0.5744560210478070,0.6392544158296819,0.6997986803791846,0.7556859037539705,0.8065441676053172,0.8520350219323621,0.8918557390046323,0.9257413320485844,0.9534663309335297,0.9748463285901533,0.9897394542663857,0.9980499305356875};

static double w39[39] = {0.0023764723458175,0.0055173944695822,0.0086281145468626,0.0116846924160897,0.0146674779919512,0.0175575557490657,0.0203366384239670,0.0229871505544585,0.0254923326460645,0.0278363451704581,0.0300043680442982,0.0319826940693413,0.0337588154831156,0.0353215029853043,0.0366608767071341,0.0377684686614179,0.0386372762723410,0.0392618066436855,0.0396381112841843,0.0397638110697213,0.0396381112841844,0.0392618066436853,0.0386372762723410,0.0377684686614184,0.0366608767071343,0.0353215029853046,0.0337588154831159,0.0319826940693410,0.0300043680442979,0.0278363451704579,0.0254923326460651,0.0229871505544587,0.0203366384239666,0.0175575557490654,0.0146674779919516,0.0116846924160889,0.0086281145468629,0.0055173944695820,0.0023764723458176};
static double pts39[39] = {-0.9981473830664328,-0.9902515368546864,-0.9760987093334711,-0.9557752123246517,-0.9294091484867386,-0.8971671192929926,-0.8592529379999062,-0.8159062974301430,-0.7674012429310635,-0.7140444358945348,-0.6561732134320107,-0.5941534549572777,-0.5283772686604372,-0.4592605123091359,-0.3872401639715614,-0.3127715592481859,-0.2363255124618361,-0.1583853399978379,-0.0794438046087557,-0.0000000000000002,0.0794438046087557,0.1583853399978377,0.2363255124618357,0.3127715592481864,0.3872401639715616,0.4592605123091362,0.5283772686604371,0.5941534549572779,0.6561732134320110,0.7140444358945348,0.7674012429310635,0.8159062974301430,0.8592529379999054,0.8971671192929930,0.9294091484867383,0.9557752123246525,0.9760987093334710,0.9902515368546859,0.9981473830664329};

static double w40[40] = {0.0022606385492665,0.0052491422655764,0.0082105291909537,0.0111229245970838,0.0139685034900116,0.0167300976412739,0.0193910839872363,0.0219354540928367,0.0243479038175362,0.0266139234919680,0.0287198845496959,0.0306531212464645,0.0324020067283005,0.0339560229076171,0.0353058236956435,0.0364432911979022,0.0373615845289842,0.0380551809503128,0.0385199090821241,0.0387529739892123,0.0387529739892124,0.0385199090821240,0.0380551809503131,0.0373615845289839,0.0364432911979020,0.0353058236956439,0.0339560229076168,0.0324020067283008,0.0306531212464645,0.0287198845496958,0.0266139234919681,0.0243479038175356,0.0219354540928366,0.0193910839872359,0.0167300976412741,0.0139685034900115,0.0111229245970833,0.0082105291909544,0.0052491422655766,0.0022606385492668};
static double pts40[40] = {-0.9982377097105594,-0.9907262386994571,-0.9772599499837745,-0.9579168192137918,-0.9328128082786766,-0.9020988069688742,-0.8659595032122591,-0.8246122308333117,-0.7783056514265192,-0.7273182551899271,-0.6719566846141796,-0.6125538896679805,-0.5494671250951284,-0.4830758016861789,-0.4137792043716051,-0.3419940908257585,-0.2681521850072534,-0.1926975807013710,-0.1160840706752552,-0.0387724175060509,0.0387724175060506,0.1160840706752551,0.1926975807013714,0.2681521850072537,0.3419940908257588,0.4137792043716051,0.4830758016861789,0.5494671250951279,0.6125538896679802,0.6719566846141795,0.7273182551899272,0.7783056514265195,0.8246122308333117,0.8659595032122597,0.9020988069688743,0.9328128082786766,0.9579168192137920,0.9772599499837742,0.9907262386994569,0.9982377097105590};

static double w41[41] = {0.0021530701790821,0.0049999693869529,0.0078224692039093,0.0106005316843898,0.0133179496035555,0.0159591058658494,0.0185088583517541,0.0209525975979550,0.0232763241845072,0.0254667271473088,0.0275112596212893,0.0293982104749358,0.0311167712904832,0.0326570982267636,0.0340103683804387,0.0351688303104087,0.0361258484305116,0.0368759410136116,0.0374148115881106,0.0377393735463577,0.0378477678236491,0.0377393735463581,0.0374148115881109,0.0368759410136117,0.0361258484305116,0.0351688303104091,0.0340103683804385,0.0326570982267635,0.0311167712904831,0.0293982104749363,0.0275112596212887,0.0254667271473085,0.0232763241845074,0.0209525975979552,0.0185088583517542,0.0159591058658502,0.0133179496035548,0.0106005316843898,0.0078224692039095,0.0049999693869528,0.0021530701790826};
static double pts41[41] = {-0.9983215885747720,-0.9911671096990170,-0.9783386735610842,-0.9599068917303469,-0.9359769874978537,-0.9066859447581012,-0.8722015116924415,-0.8327212004013617,-0.7884711450474096,-0.7397048030699261,-0.6867015020349514,-0.6297648390721966,-0.5692209416102163,-0.5054165991994064,-0.4387172770514076,-0.3695050226404817,-0.2981762773418253,-0.2251396056334227,-0.1508133548639920,-0.0756232589891625,0.0000000000000002,0.0756232589891631,0.1508133548639922,0.2251396056334228,0.2981762773418247,0.3695050226404819,0.4387172770514073,0.5054165991994061,0.5692209416102163,0.6297648390721968,0.6867015020349514,0.7397048030699266,0.7884711450474098,0.8327212004013613,0.8722015116924418,0.9066859447581009,0.9359769874978540,0.9599068917303465,0.9783386735610835,0.9911671096990164,0.9983215885747715};

static double w42[42] = {0.0020529993023245,0.0047681101508745,0.0074612218486786,0.0101139347845266,0.0127114797630563,0.0152396203498016,0.0176845355487961,0.0200328675903462,0.0222717888859828,0.0243890703964018,0.0263731478495870,0.0282131846790090,0.0298991311137935,0.0314217790225014,0.0327728121824545,0.0339448516882609,0.0349314962462970,0.0357273571325856,0.0363280876219019,0.0367304067267337,0.0369321171160866,0.0369321171160861,0.0367304067267339,0.0363280876219021,0.0357273571325857,0.0349314962462970,0.0339448516882607,0.0327728121824540,0.0314217790225012,0.0298991311137934,0.0282131846790096,0.0263731478495871,0.0243890703964011,0.0222717888859831,0.0200328675903462,0.0176845355487962,0.0152396203498021,0.0127114797630566,0.0101139347845264,0.0074612218486786,0.0047681101508741,0.0020529993023244};
static double pts42[42] = {-0.9983996189900626,-0.9915772883408613,-0.9793425080637483,-0.9617593653382043,-0.9389235573549881,-0.9109597249041279,-0.8780205698121726,-0.8402859832618170,-0.7979620532554875,-0.7512799356894805,-0.7004945905561712,-0.6458833888692480,-0.5877445974851094,-0.5263957499311923,-0.4621719120704220,-0.3954238520429750,-0.3265161244654116,-0.2558250793428792,-0.1837368065648548,-0.1106450272085199,-0.0369489431653516,0.0369489431653522,0.1106450272085200,0.1837368065648550,0.2558250793428789,0.3265161244654117,0.3954238520429754,0.4621719120704221,0.5263957499311926,0.5877445974851095,0.6458833888692473,0.7004945905561709,0.7512799356894805,0.7979620532554875,0.8402859832618168,0.8780205698121724,0.9109597249041275,0.9389235573549880,0.9617593653382044,0.9793425080637479,0.9915772883408608,0.9983996189900621};

static double w43[43] = {0.0019597451269218,0.0045519983187007,0.0071243782157883,0.0096599507118421,0.0121452283069193,0.0145672066307494,0.0169132460434305,0.0191711110970661,0.0213290285989912,0.0233757473771733,0.0253005963921953,0.0270935401594407,0.0287452309784556,0.0302470576249953,0.0315911902246981,0.0327706210631614,0.0337792011146827,0.0346116720968279,0.0352636938825428,0.0357318671262570,0.0360137509857108,0.0361078758468991,0.0360137509857109,0.0357318671262570,0.0352636938825424,0.0346116720968283,0.0337792011146825,0.0327706210631611,0.0315911902246982,0.0302470576249963,0.0287452309784558,0.0270935401594410,0.0253005963921949,0.0233757473771735,0.0213290285989910,0.0191711110970664,0.0169132460434302,0.0145672066307493,0.0121452283069194,0.0096599507118420,0.0071243782157881,0.0045519983187006,0.0019597451269219};
static double pts43[43] = {-0.9984723322425082,-0.9919595575932447,-0.9802782209802555,-0.9634866130140800,-0.9416719568476383,-0.9149479072061386,-0.8834537652186172,-0.8473537162093148,-0.8068359641369385,-0.7621117471949551,-0.7134142352689564,-0.6609973137514978,-0.6051342596396005,-0.5461163166600843,-0.4842511767857344,-0.4198613760292693,-0.3532826128643041,-0.2848619980329135,-0.2149562448605182,-0.1439298095107128,-0.0721529908745858,0.0000000000000002,0.0721529908745861,0.1439298095107137,0.2149562448605185,0.2848619980329136,0.3532826128643041,0.4198613760292692,0.4842511767857350,0.5461163166600846,0.6051342596396007,0.6609973137514981,0.7134142352689571,0.7621117471949548,0.8068359641369386,0.8473537162093144,0.8834537652186167,0.9149479072061385,0.9416719568476378,0.9634866130140796,0.9802782209802551,0.9919595575932441,0.9984723322425074};

static double w44[44] = {0.0018727024015565,0.0043502406837623,0.0068097933777898,0.0092357408684074,0.0116157409510096,0.0139378914106403,0.0161906114060353,0.0183626739069043,0.0204432561551732,0.0224219920409851,0.0242890232241758,0.0260350480458526,0.0276513677818642,0.0291299299387977,0.0304633683507810,0.0316450398666018,0.0326690574395909,0.0335303194531466,0.0342245351346834,0.0347482459307860,0.0350988427367795,0.0352745788946768,0.0352745788946771,0.0350988427367787,0.0347482459307865,0.0342245351346839,0.0335303194531471,0.0326690574395904,0.0316450398666016,0.0304633683507809,0.0291299299387975,0.0276513677818645,0.0260350480458522,0.0242890232241757,0.0224219920409845,0.0204432561551733,0.0183626739069043,0.0161906114060347,0.0139378914106410,0.0116157409510101,0.0092357408684073,0.0068097933777899,0.0043502406837622,0.0018727024015563};
static double pts44[44] = {-0.9985402006367742,-0.9923163921385161,-0.9811518330779140,-0.9650996504224929,-0.9442395091181942,-0.9186752599841758,-0.8885342382860435,-0.8539665950047106,-0.8151445396451354,-0.7722614792487557,-0.7255310536607170,-0.6751860706661224,-0.6214773459035755,-0.5646724531854703,-0.5050543913882019,-0.4429201745254115,-0.3785793520147068,-0.3123524665027860,-0.2445694569282014,-0.1755680147755170,-0.1056919017086534,-0.0352892369641354,0.0352892369641355,0.1056919017086532,0.1755680147755168,0.2445694569282014,0.3123524665027860,0.3785793520147073,0.4429201745254120,0.5050543913882030,0.5646724531854707,0.6214773459035757,0.6751860706661219,0.7255310536607168,0.7722614792487559,0.8151445396451349,0.8539665950047103,0.8885342382860434,0.9186752599841758,0.9442395091181937,0.9650996504224930,0.9811518330779133,0.9923163921385155,0.9985402006367738};

static double w45[45] = {0.0017913315776417,0.0041615946481093,0.0065155524957912,0.0088387676289691,0.0111199237752890,0.0133481069837890,0.0155126874672578,0.0176033461008042,0.0196101183646516,0.0215234403545824,0.0233341938591866,0.0250337496189761,0.0266140083656344,0.0280674393798933,0.0293871163594209,0.0305667504155334,0.0316007200369102,0.0324840978753617,0.0332126742249218,0.0337829770818035,0.0341922886893344,0.0344386584888309,0.0345209124146159,0.0344386584888305,0.0341922886893346,0.0337829770818038,0.0332126742249211,0.0324840978753618,0.0316007200369101,0.0305667504155329,0.0293871163594213,0.0280674393798935,0.0266140083656345,0.0250337496189764,0.0233341938591867,0.0215234403545828,0.0196101183646511,0.0176033461008045,0.0155126874672576,0.0133481069837890,0.0111199237752892,0.0088387676289687,0.0065155524957915,0.0041615946481089,0.0017913315776418};
static double pts45[45] = {-0.9986036451819366,-0.9926499984472035,-0.9819687150345409,-0.9666083103968945,-0.9466416909956292,-0.9221639367190005,-0.8932916717532414,-0.8601624759606644,-0.8229342205020866,-0.7817843125939066,-0.7369088489454908,-0.6885216807712006,-0.6368533944532236,-0.5821502125693535,-0.5246728204629163,-0.4646951239196351,-0.4025029438585417,-0.3383926542506021,-0.2726697697523778,-0.2056474897832636,-0.1376452059832528,-0.0689869801631438,0.0000000000000001,0.0689869801631442,0.1376452059832529,0.2056474897832639,0.2726697697523777,0.3383926542506020,0.4025029438585416,0.4646951239196353,0.5246728204629162,0.5821502125693533,0.6368533944532228,0.6885216807712006,0.7369088489454904,0.7817843125939062,0.8229342205020864,0.8601624759606645,0.8932916717532420,0.9221639367190003,0.9466416909956292,0.9666083103968950,0.9819687150345406,0.9926499984472039,0.9986036451819369};

static double w46[46] = {0.0017151504340533,0.0039849491148621,0.0062399418854946,0.0084667570039181,0.0106549993770681,0.0127946431985653,0.0148759147761012,0.0168893139995532,0.0188256526786933,0.0206760950548394,0.0224321976386590,0.0240859475508559,0.0256297990035715,0.0270567076929285,0.0283601629219956,0.0295342172977735,0.0305735138623250,0.0314733105321971,0.0322295017335695,0.0328386371338911,0.0332979373842271,0.0336053068003392,0.0337593429245179,0.0337593429245185,0.0336053068003387,0.0332979373842277,0.0328386371338907,0.0322295017335698,0.0314733105321976,0.0305735138623251,0.0295342172977729,0.0283601629219957,0.0270567076929286,0.0256297990035713,0.0240859475508566,0.0224321976386591,0.0206760950548396,0.0188256526786931,0.0168893139995533,0.0148759147761010,0.0127946431985647,0.0106549993770686,0.0084667570039183,0.0062399418854944,0.0039849491148620,0.0017151504340535};
static double pts46[46] = {-0.9986630421338185,-0.9929623489061750,-0.9827336698041672,-0.9680213918539924,-0.9488923634460900,-0.9254337988067544,-0.8977527115339422,-0.8659753948668580,-0.8302468370660661,-0.7907300570752738,-0.7476053596156658,-0.7010695120204051,-0.6513348462019978,-0.5986282897127153,-0.5431903302618029,-0.4852739183881645,-0.4251433132828281,-0.3630728770209954,-0.2993458227018699,-0.2342529222062697,-0.1680911794671032,-0.1011624753055838,-0.0337721900160518,0.0337721900160520,0.1011624753055844,0.1680911794671032,0.2342529222062697,0.2993458227018701,0.3630728770209956,0.4251433132828286,0.4852739183881647,0.5431903302618026,0.5986282897127150,0.6513348462019977,0.7010695120204056,0.7476053596156659,0.7907300570752742,0.8302468370660658,0.8659753948668578,0.8977527115339420,0.9254337988067541,0.9488923634460898,0.9680213918539919,0.9827336698041668,0.9929623489061743,0.9986630421338180};

static double w47[47] = {0.0016437269212642,0.0038193081479244,0.0059814242321564,0.0081176665732158,0.0102184690738345,0.0122746058298296,0.0142770753503214,0.0162171177575922,0.0180862482920878,0.0198762930612657,0.0215794243242400,0.0231881945432526,0.0246955688736807,0.0260949558900284,0.0273802363907652,0.0285457901466157,0.0295865204711694,0.0304978765043699,0.0312758731104611,0.0319171083028581,0.0324187781194728,0.0327786888832743,0.0329952667944054,0.0330675648118277,0.0329952667944050,0.0327786888832750,0.0324187781194728,0.0319171083028583,0.0312758731104612,0.0304978765043698,0.0295865204711698,0.0285457901466156,0.0273802363907655,0.0260949558900285,0.0246955688736804,0.0231881945432529,0.0215794243242397,0.0198762930612652,0.0180862482920873,0.0162171177575928,0.0142770753503216,0.0122746058298298,0.0102184690738342,0.0081176665732164,0.0059814242321568,0.0038193081479240,0.0016437269212641};
static double pts47[47] = {-0.9987187285842120,-0.9932552109877686,-0.9834510030716235,-0.9693467873265647,-0.9510039692577082,-0.9285026930123610,-0.9019413294385256,-0.8714360157968962,-0.8371201398999016,-0.7991437541677419,-0.7576729184454383,-0.7128889734090643,-0.6649877473903326,-0.6141786999563735,-0.5606840059346645,-0.5047375838635779,-0.4465840731048553,-0.3864777640846668,-0.3246814863377359,-0.2614654592149742,-0.1971061102791118,-0.1318848665545153,-0.0660869239163559,-0.0000000000000003,0.0660869239163552,0.1318848665545147,0.1971061102791118,0.2614654592149749,0.3246814863377364,0.3864777640846672,0.4465840731048555,0.5047375838635778,0.5606840059346641,0.6141786999563734,0.6649877473903328,0.7128889734090641,0.7576729184454386,0.7991437541677420,0.8371201398999023,0.8714360157968962,0.9019413294385256,0.9285026930123609,0.9510039692577080,0.9693467873265647,0.9834510030716235,0.9932552109877686,0.9987187285842121};

static double w48[48] = {0.0015766730261530,0.0036637769506383,0.0057386172896174,0.0077896578614718,0.0098080802286779,0.0117853804196619,0.0137132548541782,0.0155836139163990,0.0173886112823854,0.0191206755329152,0.0207725414717328,0.0223372804283468,0.0238083292462455,0.0251795177769272,0.0264450947425968,0.0275997518499920,0.0286386460502015,0.0295574198491977,0.0303522195829472,0.0310197115799462,0.0315570961431271,0.0319621192923244,0.0322330822179753,0.0323688484063419,0.0323688484063418,0.0322330822179753,0.0319621192923243,0.0315570961431266,0.0310197115799458,0.0303522195829470,0.0295574198491982,0.0286386460502015,0.0275997518499922,0.0264450947425972,0.0251795177769270,0.0238083292462455,0.0223372804283470,0.0207725414717325,0.0191206755329153,0.0173886112823849,0.0155836139163991,0.0137132548541785,0.0117853804196624,0.0098080802286777,0.0077896578614720,0.0057386172896170,0.0036637769506382,0.0015766730261526};
static double pts48[48] = {-0.9987710072524256,-0.9935301722663504,-0.9841245837228260,-0.9705915925462471,-0.9529877031604301,-0.9313866907065540,-0.9058791367155696,-0.8765720202742477,-0.8435882616243932,-0.8070662040294426,-0.7671590325157405,-0.7240341309238147,-0.6778723796326640,-0.6288673967765133,-0.5772247260839724,-0.5231609747222329,-0.4669029047509581,-0.4086864819907169,-0.3487558862921609,-0.2873624873554553,-0.2247637903946891,-0.1612223560688917,-0.0970046992094628,-0.0323801709628695,0.0323801709628694,0.0970046992094629,0.1612223560688917,0.2247637903946892,0.2873624873554556,0.3487558862921611,0.4086864819907164,0.4669029047509585,0.5231609747222328,0.5772247260839727,0.6288673967765133,0.6778723796326639,0.7240341309238144,0.7671590325157402,0.8070662040294421,0.8435882616243933,0.8765720202742481,0.9058791367155694,0.9313866907065542,0.9529877031604304,0.9705915925462472,0.9841245837228265,0.9935301722663505,0.9987710072524260};

static double w49[49] = {0.0015136394944613,0.0035175497950434,0.0055102755157965,0.0074810724678127,0.0094217979265445,0.0113246007937234,0.0131818094635334,0.0149859423102922,0.0167297333958108,0.0184061604815001,0.0200084728831867,0.0215302184906295,0.0229652696777979,0.0243078479439142,0.0255525471650725,0.0266943553541291,0.0277286748374021,0.0286513407650936,0.0294586378800138,0.0301473154765761,0.0307146004895965,0.0311582086600286,0.0314763537325976,0.0316677546482460,0.0317316407023959,0.0316677546482457,0.0314763537325976,0.0311582086600291,0.0307146004895965,0.0301473154765764,0.0294586378800137,0.0286513407650935,0.0277286748374019,0.0266943553541289,0.0255525471650727,0.0243078479439145,0.0229652696777979,0.0215302184906298,0.0200084728831865,0.0184061604815004,0.0167297333958107,0.0149859423102916,0.0131818094635328,0.0113246007937236,0.0094217979265444,0.0074810724678127,0.0055102755157968,0.0035175497950431,0.0015136394944616};
static double pts49[49] = {-0.9988201506066356,-0.9937886619441677,-0.9847578959142129,-0.9717622009015555,-0.9548536586741369,-0.9341002947558104,-0.9095856558280732,-0.8814084455730088,-0.8496821198441655,-0.8145344273598550,-0.7761068943454464,-0.7345542542374025,-0.6900438244251325,-0.6427548324192379,-0.5928776941089006,-0.5406132469917260,-0.4861719414524917,-0.4297729933415765,-0.3716435012622844,-0.3120175321197483,-0.2511351786125771,-0.1892415924618135,-0.1265859972696724,-0.0634206849826870,-0.0000000000000007,0.0634206849826866,0.1265859972696718,0.1892415924618132,0.2511351786125769,0.3120175321197491,0.3716435012622850,0.4297729933415771,0.4861719414524924,0.5406132469917264,0.5928776941089007,0.6427548324192377,0.6900438244251320,0.7345542542374028,0.7761068943454466,0.8145344273598556,0.8496821198441658,0.8814084455730089,0.9095856558280734,0.9341002947558102,0.9548536586741374,0.9717622009015553,0.9847578959142131,0.9937886619441679,0.9988201506066354};

static double w50[50] = {0.0014543112765774,0.0033798995978727,0.0052952741918256,0.0071904113807431,0.0090577803567447,0.0108901215850622,0.0126803367850063,0.0144214967902672,0.0161068641117892,0.0177299178075734,0.0192843783062937,0.0207642315450738,0.0221637521694014,0.0234775256519743,0.0247004692247334,0.0258278515347902,0.0268553109444981,0.0277788724031064,0.0285949628238640,0.0293004249066111,0.0298925293521331,0.0303689854208848,0.0307279497951584,0.0309680337103415,0.0310883083276738,0.0310883083276736,0.0309680337103419,0.0307279497951583,0.0303689854208850,0.0298925293521326,0.0293004249066109,0.0285949628238640,0.0277788724031058,0.0268553109444985,0.0258278515347908,0.0247004692247334,0.0234775256519741,0.0221637521694017,0.0207642315450741,0.0192843783062939,0.0177299178075729,0.0161068641117890,0.0144214967902677,0.0126803367850057,0.0108901215850621,0.0090577803567448,0.0071904113807429,0.0052952741918254,0.0033798995978728,0.0014543112765776};
static double pts50[50] = {-0.9988664044200712,-0.9940319694320910,-0.9853540840480061,-0.9728643851066920,-0.9566109552428074,-0.9366566189448776,-0.9130785566557919,-0.8859679795236131,-0.8554297694299464,-0.8215820708593360,-0.7845558329003993,-0.7444943022260687,-0.7015524687068223,-0.6558964656854396,-0.6077029271849502,-0.5571583045146499,-0.5044581449074641,-0.4498063349740388,-0.3934143118975649,-0.3355002454194373,-0.2762881937795323,-0.2160072368760420,-0.1548905899981458,-0.0931747015600857,-0.0310983383271890,0.0310983383271890,0.0931747015600862,0.1548905899981459,0.2160072368760417,0.2762881937795316,0.3355002454194375,0.3934143118975648,0.4498063349740388,0.5044581449074641,0.5571583045146503,0.6077029271849501,0.6558964656854394,0.7015524687068222,0.7444943022260688,0.7845558329003991,0.8215820708593361,0.8554297694299461,0.8859679795236131,0.9130785566557916,0.9366566189448780,0.9566109552428081,0.9728643851066924,0.9853540840480058,0.9940319694320907,0.9988664044200710};

static double w51[51] = {0.0013984035855449,0.0032501688916261,0.0050925956489109,0.0069163170032387,0.0087143573617006,0.0104799942008516,0.0122066502868906,0.0138878992970813,0.0155174856450799,0.0170893466020947,0.0185976344616300,0.0200367381427484,0.0214013039989401,0.0226862557038247,0.0238868131203118,0.0249985100750288,0.0260172109683483,0.0269391261565232,0.0277608260478695,0.0284792538601290,0.0290917369912960,0.0295959969614807,0.0299901578887517,0.0302727534673689,0.0304427324224286,0.0304994624206025,0.0304427324224284,0.0302727534673688,0.0299901578887519,0.0295959969614807,0.0290917369912963,0.0284792538601292,0.0277608260478697,0.0269391261565228,0.0260172109683486,0.0249985100750281,0.0238868131203115,0.0226862557038247,0.0214013039989405,0.0200367381427482,0.0185976344616304,0.0170893466020940,0.0155174856450795,0.0138878992970813,0.0122066502868906,0.0104799942008512,0.0087143573617007,0.0069163170032393,0.0050925956489113,0.0032501688916257,0.0013984035855453};
static double pts51[51] = {-0.9989099908489039,-0.9942612604367530,-0.9859159917359035,-0.9739033680193239,-0.9582678486139088,-0.9390675440029626,-0.9163738623097805,-0.8902712180295274,-0.8608567111822927,-0.8282397638230650,-0.7925417120993811,-0.7538953544853757,-0.7124444575770363,-0.6683432211753700,-0.6217557046007232,-0.5728552163513041,-0.5218236693661858,-0.4688509042860411,-0.4141339832263035,-0.3578764566884093,-0.3002876063353320,-0.2415816664477986,-0.1819770269570775,-0.1216954210188889,-0.0609611001505787,0.0000000000000002,0.0609611001505785,0.1216954210188883,0.1819770269570773,0.2415816664477986,0.3002876063353319,0.3578764566884095,0.4141339832263037,0.4688509042860409,0.5218236693661857,0.5728552163513038,0.6217557046007235,0.6683432211753700,0.7124444575770363,0.7538953544853758,0.7925417120993814,0.8282397638230650,0.8608567111822926,0.8902712180295277,0.9163738623097807,0.9390675440029623,0.9582678486139086,0.9739033680193238,0.9859159917359033,0.9942612604367531,0.9989099908489038};

static double w52[52] = {0.0013456584750235,0.0031277619814866,0.0049013172897314,0.0066575574911703,0.0083900116981507,0.0100924457539903,0.0117587567769922,0.0133829768732521,0.0149592905735723,0.0164820545448592,0.0179458174175486,0.0193453391552120,0.0206756097502801,0.0219318671295004,0.0231096141863926,0.0242046348720374,0.0252130092831712,0.0261311276919532,0.0269557034663791,0.0276837848346513,0.0283127654511844,0.0288403937262635,0.0292647808859070,0.0295844077330213,0.0297981300856240,0.0299051828726461,0.0299051828726457,0.0297981300856242,0.0295844077330214,0.0292647808859068,0.0288403937262634,0.0283127654511846,0.0276837848346518,0.0269557034663783,0.0261311276919529,0.0252130092831711,0.0242046348720376,0.0231096141863928,0.0219318671295002,0.0206756097502804,0.0193453391552121,0.0179458174175490,0.0164820545448592,0.0149592905735715,0.0133829768732518,0.0117587567769922,0.0100924457539908,0.0083900116981505,0.0066575574911706,0.0049013172897314,0.0031277619814866,0.0013456584750232};
static double pts52[52] = {-0.9989511111039500,-0.9944775909292158,-0.9864461956515496,-0.9748838842217441,-0.9598318269330864,-0.9413438536413586,-0.9194861289164242,-0.8943368905344954,-0.8659861628460674,-0.8345354323267345,-0.8000972834304682,-0.7627949951937449,-0.7227620997499834,-0.6801419042271682,-0.6350869776952459,-0.5877586049795793,-0.5383262092858274,-0.4869667456980960,-0.4338640677187626,-0.3792082691160940,-0.3231950034348079,-0.2660247836050018,-0.2079022641563663,-0.1490355086069492,-0.0896352446489004,-0.0299141097973384,0.0299141097973390,0.0896352446489009,0.1490355086069493,0.2079022641563661,0.2660247836050019,0.3231950034348082,0.3792082691160938,0.4338640677187615,0.4869667456980963,0.5383262092858275,0.5877586049795791,0.6350869776952459,0.6801419042271675,0.7227620997499833,0.7627949951937449,0.8000972834304680,0.8345354323267345,0.8659861628460677,0.8943368905344953,0.9194861289164247,0.9413438536413589,0.9598318269330866,0.9748838842217443,0.9864461956515498,0.9944775909292159,0.9989511111039504};

static double w53[53] = {0.0012958418602835,0.0030121381134744,0.0047206011424703,0.0064130130721199,0.0080833626283440,0.0097258605538182,0.0113348365285350,0.0129047412553789,0.0144301618089120,0.0159058392295099,0.0173266862917669,0.0186878049017417,0.0199845029217702,0.0212123103172598,0.0223669945518364,0.0234445751703748,0.0244413375163500,0.0253538455346463,0.0261789536149361,0.0269138174343658,0.0275559037619666,0.0281029991908698,0.0285532177681336,0.0289050074958566,0.0291571556811282,0.0293087931163600,0.0293593970755821,0.0293087931163600,0.0291571556811280,0.0289050074958565,0.0285532177681334,0.0281029991908698,0.0275559037619671,0.0269138174343655,0.0261789536149364,0.0253538455346468,0.0244413375163498,0.0234445751703750,0.0223669945518363,0.0212123103172600,0.0199845029217704,0.0186878049017413,0.0173266862917670,0.0159058392295095,0.0144301618089113,0.0129047412553789,0.0113348365285355,0.0097258605538184,0.0080833626283435,0.0064130130721205,0.0047206011424701,0.0030121381134742,0.0012958418602836};
static double pts53[53] = {-0.9989899477763285,-0.9946819193080076,-0.9869470350233718,-0.9758102337149844,-0.9613096946231362,-0.9434953534644422,-0.9224286030428120,-0.8981820578754268,-0.8708392975582415,-0.8404945765458013,-0.8072524984168954,-0.7712276549255320,-0.7325442308075101,-0.6913355756013662,-0.6477437439165098,-0.6019190057137697,-0.5540193282770682,-0.5042098316571332,-0.4526622194618458,-0.3995541869539531,-0.3450688084957221,-0.2893939064516262,-0.2327214037242730,-0.1752466621553260,-0.1171678090719552,-0.0586850543002599,-0.0000000000000005,0.0586850543002590,0.1171678090719550,0.1752466621553258,0.2327214037242727,0.2893939064516264,0.3450688084957222,0.3995541869539532,0.4526622194618459,0.5042098316571337,0.5540193282770678,0.6019190057137694,0.6477437439165099,0.6913355756013668,0.7325442308075103,0.7712276549255322,0.8072524984168956,0.8404945765458012,0.8708392975582414,0.8981820578754269,0.9224286030428118,0.9434953534644419,0.9613096946231365,0.9758102337149849,0.9869470350233717,0.9946819193080071,0.9989899477763283};

static double w54[54] = {0.0012487409178811,0.0029028055076202,0.0045496847277542,0.0061816640644236,0.0077931515179620,0.0093787638107349,0.0109332257114265,0.0124513707336044,0.0139281546552983,0.0153586712489353,0.0167381682321859,0.0180620629201919,0.0193259573910513,0.0205256530683226,0.0216571646547988,0.0227167333641383,0.0237008394032224,0.0246062136622646,0.0254298485730939,0.0261690080991494,0.0268212368237768,0.0273843681065291,0.0278565312802949,0.0282361578653131,0.0285219867793971,0.0287130685270559,0.0288087683535734,0.0288087683535735,0.0287130685270562,0.0285219867793972,0.0282361578653130,0.0278565312802950,0.0273843681065289,0.0268212368237767,0.0261690080991497,0.0254298485730939,0.0246062136622643,0.0237008394032224,0.0227167333641382,0.0216571646547983,0.0205256530683230,0.0193259573910517,0.0180620629201913,0.0167381682321860,0.0153586712489354,0.0139281546552982,0.0124513707336048,0.0109332257114261,0.0093787638107345,0.0077931515179620,0.0061816640644237,0.0045496847277547,0.0029028055076201,0.0012487409178807};
static double pts54[54] = {-0.9990266668673407,-0.9948751170183381,-0.9874206373973433,-0.9766863288579036,-0.9627076457859240,-0.9455309751649960,-0.9252133598666518,-0.9018222862847016,-0.8754354540655689,-0.8461405159707728,-0.8140347859135674,-0.7792249153462544,-0.7418265388091845,-0.7019638897191732,-0.6597693876319832,-0.6153831983311274,-0.5689527681952093,-0.5206323343859330,-0.4705824124813823,-0.4189692632552047,-0.3659643403721914,-0.3117437208344682,-0.2564875200699977,-0.2003792936062140,-0.1436054273162563,-0.0863545182632482,-0.0288167481993416,0.0288167481993414,0.0863545182632481,0.1436054273162561,0.2003792936062139,0.2564875200699971,0.3117437208344683,0.3659643403721912,0.4189692632552042,0.4705824124813819,0.5206323343859328,0.5689527681952091,0.6153831983311273,0.6597693876319833,0.7019638897191727,0.7418265388091841,0.7792249153462538,0.8140347859135678,0.8461405159707729,0.8754354540655689,0.9018222862847017,0.9252133598666512,0.9455309751649961,0.9627076457859238,0.9766863288579033,0.9874206373973436,0.9948751170183388,0.9990266668673412};

static double w55[55] = {0.0012041618099898,0.0027993161332806,0.0043878730535296,0.0059625803599239,0.0075182291667559,0.0090498072603646,0.0105524008340081,0.0120211940048624,0.0134514807281984,0.0148386788825806,0.0161783446130930,0.0174661864367953,0.0186980789339824,0.0198700759371686,0.0209784231588594,0.0220195702108030,0.0229901819731417,0.0238871492756009,0.0247075988557757,0.0254489025622469,0.0261086857728163,0.0266848350008030,0.0271755046649554,0.0275791230012542,0.0278943970976421,0.0281203170355423,0.0282561591248860,0.0283014882222801,0.0282561591248861,0.0281203170355423,0.0278943970976422,0.0275791230012543,0.0271755046649551,0.0266848350008028,0.0261086857728162,0.0254489025622469,0.0247075988557761,0.0238871492756000,0.0229901819731421,0.0220195702108025,0.0209784231588588,0.0198700759371690,0.0186980789339828,0.0174661864367955,0.0161783446130927,0.0148386788825810,0.0134514807281983,0.0120211940048629,0.0105524008340082,0.0090498072603643,0.0075182291667560,0.0059625803599244,0.0043878730535297,0.0027993161332802,0.0012041618099898};
static double pts55[55] = {-0.9990614195648183,-0.9950579778474118,-0.9878689411988889,-0.9775157355039887,-0.9640313285931349,-0.9474588680412105,-0.9278514247207914,-0.9052718007440000,-0.8797923224198955,-0.8514946066171545,-0.8204692985593209,-0.7868157811276218,-0.7506418563480218,-0.7120633999866379,-0.6712039903198264,-0.6281945122499284,-0.5831727380260331,-0.5362828859083436,-0.4876751581874741,-0.4375052600371747,-0.3859339007409796,-0.3331262788900238,-0.2792515532008068,-0.2244823006478453,-0.1689939636468733,-0.1129642880593288,-0.0565727538183369,0.0000000000000002,0.0565727538183372,0.1129642880593296,0.1689939636468736,0.2244823006478457,0.2792515532008068,0.3331262788900239,0.3859339007409796,0.4375052600371747,0.4876751581874741,0.5362828859083432,0.5831727380260320,0.6281945122499282,0.6712039903198260,0.7120633999866379,0.7506418563480216,0.7868157811276223,0.8204692985593209,0.8514946066171543,0.8797923224198949,0.9052718007439997,0.9278514247207917,0.9474588680412107,0.9640313285931350,0.9775157355039892,0.9878689411988890,0.9950579778474117,0.9990614195648184};

static double w56[56] = {0.0011619276878867,0.0027012611230080,0.0042345315816536,0.0057549121701917,0.0072575446390105,0.0087377564557004,0.0101909649412015,0.0116126757812828,0.0129984935291961,0.0143441342369112,0.0156454383736551,0.0168983835578061,0.0180990969361574,0.0192438671296238,0.0203291556923725,0.0213516080423334,0.0223080638263460,0.0231955666865009,0.0240113733968006,0.0247529623415236,0.0254180413088992,0.0260045545758711,0.0265106892620053,0.0269348809328573,0.0272758184354450,0.0275324479508811,0.0277039762516225,0.0277898731532567,0.0277898731532570,0.0277039762516226,0.0275324479508811,0.0272758184354442,0.0269348809328574,0.0265106892620058,0.0260045545758708,0.0254180413088994,0.0247529623415237,0.0240113733967998,0.0231955666865015,0.0223080638263459,0.0213516080423332,0.0203291556923726,0.0192438671296240,0.0180990969361578,0.0168983835578058,0.0156454383736552,0.0143441342369110,0.0129984935291961,0.0116126757812830,0.0101909649412008,0.0087377564557007,0.0072575446390113,0.0057549121701919,0.0042345315816541,0.0027012611230074,0.0011619276878865};
static double pts56[56] = {-0.9990943438014657,-0.9952312260810693,-0.9882937155401611,-0.9783017091402564,-0.9652859019054904,-0.9492864795619629,-0.9303528802474965,-0.9085436204206557,-0.8839261083278274,-0.8565764337627483,-0.8265791321428818,-0.7940269228938663,-0.7590204227051290,-0.7216678344501880,-0.6820846126944700,-0.6403931068070069,-0.5967221827706632,-0.5512068248555345,-0.5039877183843815,-0.4552108148784593,-0.4050268809270914,-0.3535910321749548,-0.3010622538672209,-0.2476029094343373,-0.1933782386352754,-0.1385558468103764,-0.0833051868224356,-0.0277970352872756,0.0277970352872750,0.0833051868224351,0.1385558468103762,0.1933782386352751,0.2476029094343372,0.3010622538672203,0.3535910321749545,0.4050268809270915,0.4552108148784593,0.5039877183843821,0.5512068248555344,0.5967221827706632,0.6403931068070068,0.6820846126944705,0.7216678344501880,0.7590204227051287,0.7940269228938664,0.8265791321428816,0.8565764337627486,0.8839261083278277,0.9085436204206552,0.9303528802474964,0.9492864795619625,0.9652859019054904,0.9783017091402564,0.9882937155401614,0.9952312260810697,0.9990943438014656};

static double w57[57] = {0.0011218769361257,0.0026082667373592,0.0040890800339103,0.0055578818661681,0.0070101353953765,0.0084414795117209,0.0098476353497445,0.0112244039453881,0.0125676754954589,0.0138734407010905,0.0151378024213468,0.0163569871831859,0.0175273563911562,0.0186454171622085,0.0197078327377402,0.0207114324354007,0.0216532211081076,0.0225303880806903,0.0233403155368209,0.0240805863308439,0.0247489912010099,0.0253435353624637,0.0258624444602587,0.0263041698645887,0.0266673932924097,0.0269510307416492,0.0271542357262490,0.0272764018023810,0.0273171643782916,0.0272764018023810,0.0271542357262496,0.0269510307416491,0.0266673932924097,0.0263041698645890,0.0258624444602587,0.0253435353624641,0.0247489912010100,0.0240805863308439,0.0233403155368211,0.0225303880806904,0.0216532211081077,0.0207114324354004,0.0197078327377399,0.0186454171622088,0.0175273563911564,0.0163569871831855,0.0151378024213470,0.0138734407010900,0.0125676754954590,0.0112244039453881,0.0098476353497443,0.0084414795117205,0.0070101353953768,0.0055578818661682,0.0040890800339107,0.0026082667373592,0.0011218769361254};
static double pts57[57] = {-0.9991255656252626,-0.9953955236784300,-0.9886965776502221,-0.9790472267094688,-0.9664760851718871,-0.9510206264478769,-0.9327269610671014,-0.9116496785213910,-0.8878516788822212,-0.8614039832620470,-0.8323855211504388,-0.8008828945472178,-0.7669901193594503,-0.7308083447445232,-0.6924455511995176,-0.6520162282809771,-0.6096410329087153,-0.5654464292692366,-0.5195643113911876,-0.4721316095179759,-0.4232898814515645,-0.3731848900865942,-0.3219661683953782,-0.2697865731618390,-0.2168018287961240,-0.1631700625912642,-0.1090513328087881,-0.0546071510016473,-0.0000000000000002,0.0546071510016466,0.1090513328087879,0.1631700625912640,0.2168018287961243,0.2697865731618387,0.3219661683953786,0.3731848900865946,0.4232898814515638,0.4721316095179757,0.5195643113911875,0.5654464292692367,0.6096410329087151,0.6520162282809769,0.6924455511995177,0.7308083447445236,0.7669901193594497,0.8008828945472186,0.8323855211504391,0.8614039832620469,0.8878516788822212,0.9116496785213911,0.9327269610671017,0.9510206264478768,0.9664760851718867,0.9790472267094686,0.9886965776502221,0.9953955236784302,0.9991255656252627};

static double w58[58] = {0.0010838616248137,0.0025199908063255,0.0039509869249990,0.0053707767664394,0.0067751185564946,0.0081599371174854,0.0095212327309469,0.0108550780700731,0.0121576263624819,0.0134251215909911,0.0146539090220800,0.0158404456269047,0.0169813102467080,0.0180732134335439,0.0191130069229293,0.0200976927049335,0.0210244316647915,0.0218905517668201,0.0226935557574092,0.0234311283645134,0.0241011429727089,0.0247016677544812,0.0252309712399768,0.0256875273091427,0.0260700195918350,0.0263773452631853,0.0266086182232892,0.0267631716520293,0.0268405599316671,0.0268405599316678,0.0267631716520291,0.0266086182232898,0.0263773452631854,0.0260700195918349,0.0256875273091430,0.0252309712399766,0.0247016677544815,0.0241011429727091,0.0234311283645131,0.0226935557574096,0.0218905517668200,0.0210244316647912,0.0200976927049332,0.0191130069229289,0.0180732134335434,0.0169813102467083,0.0158404456269041,0.0146539090220801,0.0134251215909911,0.0121576263624818,0.0108550780700735,0.0095212327309469,0.0081599371174858,0.0067751185564944,0.0053707767664396,0.0039509869249992,0.0025199908063255,0.0010838616248136};
static double pts58[58] = {-0.9991552004073869,-0.9955514765972910,-0.9890790082484425,-0.9797550146943507,-0.9676062025029237,-0.9526675575188690,-0.9349821375882593,-0.9146009285643525,-0.8915826920220300,-0.8659937940748070,-0.8379080133393734,-0.8074063279130879,-0.7745766817496523,-0.7395137310200423,-0.7023185711539078,-0.6630984453321253,-0.6219664352630793,-0.5790411351302248,-0.5344463096488477,-0.4883105372167180,-0.4407668391868400,-0.3919522963307527,-0.3420076535979951,-0.2910769143111087,-0.2393069249661533,-0.1868469518357617,-0.1338482505954672,-0.0804636302141432,-0.0268470123659425,0.0268470123659419,0.0804636302141431,0.1338482505954668,0.1868469518357612,0.2393069249661534,0.2910769143111094,0.3420076535979951,0.3919522963307534,0.4407668391868394,0.4883105372167182,0.5344463096488475,0.5790411351302246,0.6219664352630788,0.6630984453321249,0.7023185711539083,0.7395137310200424,0.7745766817496523,0.8074063279130885,0.8379080133393733,0.8659937940748074,0.8915826920220302,0.9146009285643526,0.9349821375882592,0.9526675575188691,0.9676062025029241,0.9797550146943501,0.9890790082484429,0.9955514765972908,0.9991552004073864};

static double w59[59] = {0.0010477461422705,0.0024361195841328,0.0038197647267438,0.0051929427504984,0.0065516831531726,0.0078921736565404,0.0092106713768049,0.0105034991442182,0.0117670526968567,0.0129978098656491,0.0141923401002678,0.0153473139180555,0.0164595121355227,0.0175258348182000,0.0185433099094355,0.0195091015080800,0.0204205177693437,0.0212750184055337,0.0220702217651482,0.0228039114702551,0.0234740425934812,0.0240787473573029,0.0246163403396814,0.0250853231714982,0.0254843887126967,0.0258124246954460,0.0260685168241883,0.0262519513239145,0.0263622169295637,0.0263990063109950,0.0263622169295636,0.0262519513239145,0.0260685168241874,0.0258124246954459,0.0254843887126971,0.0250853231714985,0.0246163403396816,0.0240787473573034,0.0234740425934808,0.0228039114702544,0.0220702217651491,0.0212750184055334,0.0204205177693429,0.0195091015080799,0.0185433099094354,0.0175258348182000,0.0164595121355225,0.0153473139180562,0.0141923401002671,0.0129978098656490,0.0117670526968570,0.0105034991442183,0.0092106713768047,0.0078921736565413,0.0065516831531726,0.0051929427504979,0.0038197647267440,0.0024361195841329,0.0010477461422704};
static double pts59[59] = {-0.9991833539092946,-0.9956996403832458,-0.9894423651337305,-0.9804275739567153,-0.9686802216817813,-0.9542330093769508,-0.9371261903534532,-0.9174074387881553,-0.8951317117434722,-0.8703610942928820,-0.8431646258168726,-0.8136181072882118,-0.7818038898623610,-0.7478106452786406,-0.7117331186771978,-0.6736718645049375,-0.6337329662388504,-0.5920277407040299,-0.5486724278083961,-0.5037878665577180,-0.4574991582532669,-0.4099353178104191,-0.3612289141697951,-0.3115157008030137,-0.2609342373428117,-0.2096255033920366,-0.1577325055878578,-0.1053998790163441,-0.0527734840883096,0.0000000000000002,0.0527734840883104,0.1053998790163442,0.1577325055878579,0.2096255033920365,0.2609342373428116,0.3115157008030137,0.3612289141697945,0.4099353178104184,0.4574991582532664,0.5037878665577177,0.5486724278083964,0.5920277407040302,0.6337329662388498,0.6736718645049373,0.7117331186771977,0.7478106452786403,0.7818038898623609,0.8136181072882113,0.8431646258168723,0.8703610942928826,0.8951317117434721,0.9174074387881554,0.9371261903534541,0.9542330093769509,0.9686802216817817,0.9804275739567160,0.9894423651337306,0.9956996403832458,0.9991833539092948};

static double w60[60] = {0.0010134059844364,0.0023563649634769,0.0036949655816732,0.0050237785911439,0.0063390832384082,0.0076373092983922,0.0089149505071036,0.0101685603647288,0.0113947584719989,0.0125902388107603,0.0137517783749627,0.0148762457503945,0.0159606095096484,0.0170019463624735,0.0179974490255419,0.0189444337846219,0.0198403477261904,0.0206827756177926,0.0214694464179674,0.0221982393978938,0.0228671898580571,0.0234744944244562,0.0240185159099853,0.0244977877278785,0.0249110178452747,0.0252570922662548,0.0255350780349282,0.0257442257504902,0.0258839715874548,0.0259539388156106,0.0259539388156103,0.0258839715874547,0.0257442257504909,0.0255350780349281,0.0252570922662548,0.0249110178452750,0.0244977877278786,0.0240185159099852,0.0234744944244557,0.0228671898580574,0.0221982393978939,0.0214694464179684,0.0206827756177923,0.0198403477261911,0.0189444337846217,0.0179974490255421,0.0170019463624730,0.0159606095096483,0.0148762457503944,0.0137517783749623,0.0125902388107605,0.0113947584719991,0.0101685603647286,0.0089149505071042,0.0076373092983926,0.0063390832384076,0.0050237785911441,0.0036949655816728,0.0023563649634766,0.0010134059844369};
static double pts60[60] = {-0.9992101232274366,-0.9958405251188392,-0.9897878952222222,-0.9810672017525980,-0.9697017887650528,-0.9557222558399961,-0.9391662761164239,-0.9200784761776275,-0.8985103108100462,-0.8745199226468987,-0.8481719847859297,-0.8195375261621461,-0.7886937399322640,-0.7557237753065859,-0.7207165133557303,-0.6837663273813551,-0.6449728284894768,-0.6044405970485104,-0.5622789007539444,-0.5186014000585698,-0.4735258417617068,-0.4271737415830782,-0.3796700565767975,-0.3311428482684478,-0.2817229374232618,-0.2315435513760293,-0.1807399648734252,-0.1294491353969447,-0.0778093339495365,-0.0259597723012480,0.0259597723012479,0.0778093339495362,0.1294491353969445,0.1807399648734255,0.2315435513760295,0.2817229374232617,0.3311428482684480,0.3796700565767979,0.4271737415830784,0.4735258417617074,0.5186014000585698,0.5622789007539445,0.6044405970485102,0.6449728284894772,0.6837663273813552,0.7207165133557306,0.7557237753065857,0.7886937399322641,0.8195375261621459,0.8481719847859296,0.8745199226468984,0.8985103108100463,0.9200784761776278,0.9391662761164234,0.9557222558399959,0.9697017887650530,0.9810672017525982,0.9897878952222217,0.9958405251188385,0.9992101232274361};

static double w61[61] = {0.0009807266808350,0.0022804620030059,0.0035761774958750,0.0048627309151779,0.0061366317539060,0.0073945329424693,0.0086331464938069,0.0098492388730506,0.0110396365741592,0.0122012335937720,0.0133309992620758,0.0144259860440913,0.0154833371841990,0.0165002941379536,0.0174742037582668,0.0184025252115771,0.0192828366035043,0.0201128412954994,0.0208903738954442,0.0216134059062477,0.0222800510175417,0.0228885700265732,0.0234373753754046,0.0239250352925478,0.0243502775282059,0.0247119926733677,0.0250092370540893,0.0252412351933984,0.0254073818344090,0.0255072435193483,0.0255405597203933,0.0255072435193485,0.0254073818344089,0.0252412351933986,0.0250092370540891,0.0247119926733678,0.0243502775282060,0.0239250352925480,0.0234373753754043,0.0228885700265730,0.0222800510175419,0.0216134059062485,0.0208903738954445,0.0201128412954989,0.0192828366035043,0.0184025252115772,0.0174742037582669,0.0165002941379531,0.0154833371841986,0.0144259860440918,0.0133309992620760,0.0122012335937722,0.0110396365741598,0.0098492388730509,0.0086331464938065,0.0073945329424687,0.0061366317539064,0.0048627309151778,0.0035761774958748,0.0022804620030060,0.0009807266808351};
static double pts61[61] = {-0.9992355976313638,-0.9959745998151202,-0.9901167452325172,-0.9816760112840371,-0.9706742588331825,-0.9571401519129838,-0.9411089866813610,-0.9226225813829547,-0.9017291624740006,-0.8784832372148804,-0.8529454508476635,-0.8251824281086599,-0.7952665992823595,-0.7632760111723121,-0.7292941234494650,-0.6934095908944915,-0.6557160320950709,-0.6163117851979220,-0.5752996513508304,-0.5327866265029255,-0.4888836222622525,-0.4437051765385318,-0.3973691547257567,-0.3499964422040671,-0.3017106289630305,-0.2526376871690535,-0.2029056425180583,-0.1526442402308155,-0.1019846065622741,-0.0510589067079748,-0.0000000000000003,0.0510589067079738,0.1019846065622739,0.1526442402308149,0.2029056425180584,0.2526376871690537,0.3017106289630310,0.3499964422040669,0.3973691547257564,0.4437051765385317,0.4888836222622523,0.5327866265029252,0.5752996513508306,0.6163117851979217,0.6557160320950709,0.6934095908944917,0.7292941234494653,0.7632760111723121,0.7952665992823599,0.8251824281086599,0.8529454508476635,0.8784832372148811,0.9017291624740015,0.9226225813829549,0.9411089866813612,0.9571401519129844,0.9706742588331829,0.9816760112840373,0.9901167452325170,0.9959745998151202,0.9992355976313636};

static double w62[62] = {0.0009496028397571,0.0022081667284653,0.0034630209509155,0.0047092897142102,0.0059436950585051,0.0071630959119035,0.0083644058950886,0.0095445883292862,0.0107006611388354,0.0118297036043414,0.0129288634770126,0.0139953640816569,0.0150265112869949,0.0160197002908123,0.0169724221897051,0.0178822703113841,0.0187469462911401,0.0195642658759815,0.0203321644412088,0.0210487022051924,0.0217120691290237,0.0223205894885621,0.0228727261072850,0.0233670842392080,0.0238024150920506,0.0241776189817388,0.0244917481102590,0.0247440089598496,0.0249337642974761,0.0250605347845215,0.0251240001876288,0.0251240001876277,0.0250605347845219,0.0249337642974758,0.0247440089598499,0.0244917481102591,0.0241776189817392,0.0238024150920501,0.0233670842392079,0.0228727261072849,0.0223205894885617,0.0217120691290237,0.0210487022051926,0.0203321644412087,0.0195642658759814,0.0187469462911396,0.0178822703113837,0.0169724221897058,0.0160197002908122,0.0150265112869949,0.0139953640816575,0.0129288634770123,0.0118297036043416,0.0107006611388349,0.0095445883292870,0.0083644058950885,0.0071630959119034,0.0059436950585053,0.0047092897142104,0.0034630209509157,0.0022081667284657,0.0009496028397567};
static double pts62[62] = {-0.9992598593087766,-0.9961022963162669,-0.9904299711892905,-0.9822559490972367,-0.9716007233716513,-0.9584911729739268,-0.9429604013923284,-0.9250476356362043,-0.9047981225210936,-0.8822630128318972,-0.8574992315120707,-0.8305693336040052,-0.8015413461039765,-0.7704885960554193,-0.7374895252831569,-0.7026274922222974,-0.6659905613354793,-0.6276712806468853,-0.5877664479530872,-0.5463768663002512,-0.5036070893447558,-0.4595651572401137,-0.4143623237171266,-0.3681127750465649,-0.3209333415941942,-0.2729432026967267,-0.2242635856041656,-0.1750174592490158,-0.1253292236158969,-0.0753243954962345,-0.0251292914218208,0.0251292914218203,0.0753243954962344,0.1253292236158971,0.1750174592490161,0.2242635856041658,0.2729432026967269,0.3209333415941943,0.3681127750465649,0.4143623237171263,0.4595651572401140,0.5036070893447564,0.5463768663002514,0.5877664479530872,0.6276712806468853,0.6659905613354797,0.7026274922222973,0.7374895252831567,0.7704885960554194,0.8015413461039766,0.8305693336040045,0.8574992315120713,0.8822630128318970,0.9047981225210935,0.9250476356362037,0.9429604013923283,0.9584911729739268,0.9716007233716519,0.9822559490972367,0.9904299711892901,0.9961022963162672,0.9992598593087768};

static double w63[63] = {0.0009199372977881,0.0021392541734322,0.0033551458829800,0.0045629843381633,0.0057596880384396,0.0069423063080585,0.0081079392051693,0.0092537322300804,0.0103768806290199,0.0114746355024446,0.0125443102766729,0.0135832871795487,0.0145890236041404,0.0155590583111099,0.0164910174418898,0.0173826203226780,0.0182316850427289,0.0190361337921745,0.0197939979457722,0.0205034228798330,0.0211626725104079,0.0217701335415140,0.0223243194129709,0.0228238739381462,0.0232675746226919,0.0236543356561342,0.0239832105689976,0.0242533945489420,0.0244642264102559,0.0246151902118740,0.0247059165199588,0.0247361833119660,0.0247059165199590,0.0246151902118737,0.0244642264102562,0.0242533945489417,0.0239832105689973,0.0236543356561344,0.0232675746226915,0.0228238739381463,0.0223243194129707,0.0217701335415134,0.0211626725104083,0.0205034228798330,0.0197939979457724,0.0190361337921753,0.0182316850427285,0.0173826203226780,0.0164910174418895,0.0155590583111100,0.0145890236041406,0.0135832871795491,0.0125443102766725,0.0114746355024450,0.0103768806290189,0.0092537322300805,0.0081079392051691,0.0069423063080576,0.0057596880384402,0.0045629843381638,0.0033551458829801,0.0021392541734316,0.0009199372977886};
static double pts63[63] = {-0.9992829840291240,-0.9962240127779705,-0.9907285468921900,-0.9828088105937275,-0.9724840346975704,-0.9597794497589419,-0.9447261340410101,-0.9273609206218436,-0.9077263027785317,-0.8858703285078533,-0.8618464823641239,-0.8357135543195031,-0.8075354957734572,-0.7773812629903724,-0.7453246483178478,-0.7114440995848458,-0.6758225281149859,-0.6385471058213652,-0.5997090518776252,-0.5594034094862850,-0.5177288132900330,-0.4747872479948040,-0.4306837987951113,-0.3855263942122476,-0.3394255419745844,-0.2924940585862513,-0.2448467932459535,-0.1966003467915067,-0.1478727863578720,-0.0987833564469451,-0.0494521871161594,0.0000000000000000,0.0494521871161600,0.0987833564469454,0.1478727863578722,0.1966003467915067,0.2448467932459535,0.2924940585862514,0.3394255419745842,0.3855263942122477,0.4306837987951115,0.4747872479948045,0.5177288132900328,0.5594034094862851,0.5997090518776256,0.6385471058213651,0.6758225281149862,0.7114440995848457,0.7453246483178473,0.7773812629903727,0.8075354957734565,0.8357135543195029,0.8618464823641236,0.8858703285078534,0.9077263027785316,0.9273609206218436,0.9447261340410096,0.9597794497589420,0.9724840346975699,0.9828088105937275,0.9907285468921891,0.9962240127779700,0.9992829840291239};

static double w64[64] = {0.0008916403608482,0.0020735166302810,0.0032522289844892,0.0044233799131818,0.0055840697300659,0.0067315239483592,0.0078630152380128,0.0089758578878485,0.0100674115767652,0.0111350869041915,0.0121763512843552,0.0131887348575273,0.0141698363071300,0.0151173285362012,0.0160289641774257,0.0169025809185707,0.0177361066284416,0.0185275642701199,0.0192750765893080,0.0199768705663598,0.0206312816213117,0.0212367575618271,0.0217918622646616,0.0222952790818784,0.0227458139637090,0.0231423982906573,0.0234840914081050,0.0237700828574148,0.0239996942982291,0.0241723811174013,0.0242877337207517,0.0243454785045703,0.0243454785045703,0.0242877337207515,0.0241723811174018,0.0239996942982290,0.0237700828574148,0.0234840914081047,0.0231423982906571,0.0227458139637090,0.0222952790818783,0.0217918622646619,0.0212367575618266,0.0206312816213125,0.0199768705663601,0.0192750765893080,0.0185275642701204,0.0177361066284411,0.0169025809185705,0.0160289641774254,0.0151173285362018,0.0141698363071295,0.0131887348575273,0.0121763512843554,0.0111350869041918,0.0100674115767650,0.0089758578878484,0.0078630152380122,0.0067315239483597,0.0055840697300661,0.0044233799131820,0.0032522289844891,0.0020735166302813,0.0008916403608482};
static double pts64[64] = {-0.9993050417357725,-0.9963401167719553,-0.9910133714767446,-0.9833362538846262,-0.9733268277899109,-0.9610087996520535,-0.9464113748584028,-0.9295691721319393,-0.9105221370785024,-0.8893154459951134,-0.8659993981540924,-0.8406292962525806,-0.8132653151227978,-0.7839723589433417,-0.7528199072605319,-0.7198818501716112,-0.6852363130542332,-0.6489654712546575,-0.6111553551723929,-0.5718956462026329,-0.5312794640198942,-0.4894031457070531,-0.4463660172534640,-0.4022701579639916,-0.3572201583376681,-0.3113228719902108,-0.2646871622087671,-0.2174236437400070,-0.1696444204239930,-0.1214628192961204,-0.0729931217877989,-0.0243502926634244,0.0243502926634244,0.0729931217877992,0.1214628192961208,0.1696444204239932,0.2174236437400070,0.2646871622087676,0.3113228719902111,0.3572201583376680,0.4022701579639918,0.4463660172534640,0.4894031457070529,0.5312794640198945,0.5718956462026342,0.6111553551723933,0.6489654712546575,0.6852363130542333,0.7198818501716105,0.7528199072605322,0.7839723589433412,0.8132653151227974,0.8406292962525803,0.8659993981540931,0.8893154459951141,0.9105221370785025,0.9295691721319397,0.9464113748584028,0.9610087996520538,0.9733268277899106,0.9833362538846259,0.9910133714767441,0.9963401167719551,0.9993050417357719};

static double w65[65] = {0.0008646291256502,0.0020107620860018,0.0031539712894858,0.0042900741334409,0.0054163393947989,0.0065301558199974,0.0076289560732241,0.0087102109988351,0.0097714329183752,0.0108101806424673,0.0118240648456431,0.0128107534690188,0.0137679770442253,0.0146935338946557,0.0155852951900943,0.0164412098381844,0.0172593091992743,0.0180377116127829,0.0187746267241285,0.0194683596020256,0.0201173146365030,0.0207199992086201,0.0212750271233780,0.0217811217979003,0.0222371191975416,0.0226419705131499,0.0229947445733257,0.0232946299861167,0.0235409370052276,0.0237330991164428,0.0238706743406203,0.0239533462502480,0.0239809246972335,0.0239533462502476,0.0238706743406205,0.0237330991164425,0.0235409370052272,0.0232946299861164,0.0229947445733259,0.0226419705131506,0.0222371191975417,0.0217811217979001,0.0212750271233776,0.0207199992086200,0.0201173146365028,0.0194683596020251,0.0187746267241291,0.0180377116127828,0.0172593091992747,0.0164412098381842,0.0155852951900941,0.0146935338946554,0.0137679770442254,0.0128107534690190,0.0118240648456437,0.0108101806424669,0.0097714329183752,0.0087102109988349,0.0076289560732242,0.0065301558199977,0.0054163393947985,0.0042900741334409,0.0031539712894859,0.0020107620860017,0.0008646291256502};
static double pts65[65] = {-0.9993260970754128,-0.9964509480618489,-0.9912852761768016,-0.9838398121870348,-0.9741315398335512,-0.9621827547180551,-0.9480209281684076,-0.9316786282287494,-0.9131934405428459,-0.8926078805047384,-0.8699692949264064,-0.8453297528999300,-0.8187459259226515,-0.7902789574921217,-0.7599943224419996,-0.7279616763294245,-0.6942546952139916,-0.6589509061936247,-0.6221315090854002,-0.5838811896604873,-0.5442879248622271,-0.5034427804550067,-0.4614397015691447,-0.4183752966234084,-0.3743486151220654,-0.3294609198374857,-0.2838154539022484,-0.2375172033464168,-0.1906726556261429,-0.1433895546989753,-0.0957766532091979,-0.0479434623531725,0.0000000000000001,0.0479434623531719,0.0957766532091973,0.1433895546989749,0.1906726556261427,0.2375172033464170,0.2838154539022487,0.3294609198374861,0.3743486151220657,0.4183752966234090,0.4614397015691449,0.5034427804550070,0.5442879248622272,0.5838811896604872,0.6221315090854003,0.6589509061936248,0.6942546952139916,0.7279616763294244,0.7599943224419996,0.7902789574921218,0.8187459259226513,0.8453297528999301,0.8699692949264072,0.8926078805047387,0.9131934405428460,0.9316786282287490,0.9480209281684074,0.9621827547180549,0.9741315398335511,0.9838398121870349,0.9912852761768015,0.9964509480618486,0.9993260970754128};

static double w66[66] = {0.0008388268720035,0.0019508128208722,0.0030600960092240,0.0041626943829956,0.0052560329938530,0.0063376519906307,0.0074051325013669,0.0084560907361226,0.0094881808613852,0.0104990995459327,0.0114865908676632,0.0124484512573789,0.0133825343771251,0.0142867558914657,0.0151590981094340,0.0159976144820234,0.0168004339430559,0.0175657650827366,0.0182919001440695,0.0189772188329708,0.0196201919334139,0.0202193847194776,0.0207734601566213,0.0212811818850276,0.0217414169783341,0.0221531384715766,0.0225154276527207,0.0228274761126363,0.0230885875489580,0.0232981793197924,0.0234557837438104,0.0235610491438227,0.0236137406314993,0.0236137406314991,0.0235610491438220,0.0234557837438101,0.0232981793197920,0.0230885875489581,0.0228274761126364,0.0225154276527210,0.0221531384715771,0.0217414169783338,0.0212811818850277,0.0207734601566210,0.0202193847194773,0.0196201919334146,0.0189772188329712,0.0182919001440699,0.0175657650827365,0.0168004339430555,0.0159976144820238,0.0151590981094344,0.0142867558914662,0.0133825343771251,0.0124484512573788,0.0114865908676628,0.0104990995459320,0.0094881808613859,0.0084560907361227,0.0074051325013668,0.0063376519906307,0.0052560329938524,0.0041626943829956,0.0030600960092241,0.0019508128208721,0.0008388268720036};
static double pts66[66] = {-0.9993462098721779,-0.9965568210895530,-0.9915450303833757,-0.9843209049351401,-0.9749004277462860,-0.9633045868592576,-0.9495592462062356,-0.9336950725447919,-0.9157474629452069,-0.8957564644465642,-0.8737666841669446,-0.8498271895360164,-0.8239913986955878,-0.7963169612458245,-0.7668656295753198,-0.7357031210495130,-0.7028989713588742,-0.6685263793509680,-0.6326620436909639,-0.5953859917141382,-0.5567814008517231,-0.5169344130282321,-0.4759339424442373,-0.4338714771733710,-0.3908408750161836,-0.3469381540663375,-0.3022612784564354,-0.2569099397615301,-0.2109853345480789,-0.1645899385647145,-0.1178272780786759,-0.0708016988681415,-0.0236181333859244,0.0236181333859251,0.0708016988681417,0.1178272780786766,0.1645899385647147,0.2109853345480792,0.2569099397615303,0.3022612784564362,0.3469381540663378,0.3908408750161828,0.4338714771733704,0.4759339424442365,0.5169344130282314,0.5567814008517231,0.5953859917141385,0.6326620436909632,0.6685263793509679,0.7028989713588740,0.7357031210495131,0.7668656295753198,0.7963169612458246,0.8239913986955877,0.8498271895360158,0.8737666841669453,0.8957564644465642,0.9157474629452074,0.9336950725447928,0.9495592462062354,0.9633045868592575,0.9749004277462862,0.9843209049351402,0.9915450303833756,0.9965568210895529,0.9993462098721780};

static double w67[67] = {0.0008141625176200,0.0018935041509128,0.0029703465887910,0.0040408951495115,0.0051027200170511,0.0061535019246441,0.0071909599136003,0.0082128453112655,0.0092169442284023,0.0102010816856719,0.0111631260982258,0.0121009938048369,0.0130126535431062,0.0138961308312187,0.0147495122354729,0.0155709495097361,0.0163586635957654,0.0171109484747684,0.0178261748613723,0.0185027937317465,0.0191393396780897,0.0197344340821542,0.0202867881008725,0.0207952054575994,0.0212585850329155,0.0216759232493497,0.0220463162448754,0.0223689618304450,0.0226431612273351,0.0228683205805318,0.0230439522448811,0.0231696758412075,0.0232452190801325,0.0232704183517814,0.0232452190801321,0.0231696758412077,0.0230439522448810,0.0228683205805316,0.0226431612273349,0.0223689618304449,0.0220463162448758,0.0216759232493498,0.0212585850329153,0.0207952054575993,0.0202867881008720,0.0197344340821548,0.0191393396780898,0.0185027937317463,0.0178261748613724,0.0171109484747682,0.0163586635957653,0.0155709495097361,0.0147495122354725,0.0138961308312186,0.0130126535431067,0.0121009938048368,0.0111631260982254,0.0102010816856715,0.0092169442284025,0.0082128453112659,0.0071909599136002,0.0061535019246441,0.0051027200170513,0.0040408951495111,0.0029703465887909,0.0018935041509130,0.0008141625176200};
static double pts67[67] = {-0.9993654355529770,-0.9966580272061141,-0.9917933470823097,-0.9847808477559508,-0.9756355839229084,-0.9643773304277127,-0.9510304595401455,-0.9356238732707509,-0.9181909368127387,-0.8987694049613202,-0.8774013398316590,-0.8541330195370507,-0.8290148378533012,-0.8021011950216942,-0.7734503798999801,-0.7431244437043664,-0.7111890656100405,-0.6777134104982812,-0.6427699791566155,-0.6064344512555573,-0.5687855214414707,-0.5299047289002361,-0.4898762807606468,-0.4487868697198915,-0.4067254862860138,-0.3637832260439544,-0.3200530923625363,-0.2756297949696896,-0.2306095448321157,-0.1850898457836400,-0.1391692833535233,-0.0929473112520793,-0.0465240359760168,0.0000000000000001,0.0465240359760172,0.0929473112520807,0.1391692833535239,0.1850898457836398,0.2306095448321157,0.2756297949696894,0.3200530923625363,0.3637832260439544,0.4067254862860142,0.4487868697198908,0.4898762807606465,0.5299047289002361,0.5687855214414710,0.6064344512555575,0.6427699791566155,0.6777134104982806,0.7111890656100404,0.7431244437043663,0.7734503798999806,0.8021011950216942,0.8290148378533010,0.8541330195370505,0.8774013398316589,0.8987694049613203,0.9181909368127388,0.9356238732707506,0.9510304595401449,0.9643773304277126,0.9756355839229078,0.9847808477559509,0.9917933470823098,0.9966580272061135,0.9993654355529767};

static double w68[68] = {0.0007905701281865,0.0018386832975056,0.0028844849593649,0.0039243556965890,0.0049560006257930,0.0059772311598843,0.0069858945872290,0.0079798679548070,0.0089570602289616,0.0099154160439776,0.0108529198051889,0.0117675998429382,0.0126575325225883,0.0135208462729519,0.0143557255137423,0.0151604144692768,0.0159332208584110,0.0166725194519903,0.0173767554898758,0.0180444479500899,0.0186741926630934,0.0192646652645535,0.0198146239803563,0.0203229122379770,0.0207884610987014,0.0212102915055712,0.0215875163423222,0.0219193422989781,0.0222050715401762,0.0224441031727132,0.0226359345092218,0.0227801621253243,0.0228764827080334,0.0229246936936254,0.0229246936936255,0.0228764827080342,0.0227801621253241,0.0226359345092222,0.0224441031727133,0.0222050715401758,0.0219193422989784,0.0215875163423222,0.0212102915055710,0.0207884610987012,0.0203229122379770,0.0198146239803561,0.0192646652645534,0.0186741926630932,0.0180444479500897,0.0173767554898757,0.0166725194519906,0.0159332208584107,0.0151604144692770,0.0143557255137424,0.0135208462729521,0.0126575325225881,0.0117675998429386,0.0108529198051894,0.0099154160439777,0.0089570602289613,0.0079798679548071,0.0069858945872287,0.0059772311598845,0.0049560006257930,0.0039243556965882,0.0028844849593649,0.0018386832975059,0.0007905701281865};
static double pts68[68] = {-0.9993838255297044,-0.9967548366766643,-0.9920308877424482,-0.9852208614402447,-0.9763389504003569,-0.9654038025821998,-0.9524384044796027,-0.9374700183128013,-0.9205301208479184,-0.9016543359201078,-0.8808823590174563,-0.8582578735826598,-0.8338284590416712,-0.8076454906897087,-0.7797640316188977,-0.7502427169029169,-0.7191436302764732,-0.6865321735660126,-0.6524769291446768,-0.6170495156998835,-0.5803244376163508,-0.5423789282910033,-0.5032927877090848,-0.4631482146229390,-0.4220296336863135,-0.3800235179076742,-0.3372182067958809,-0.2937037205806388,-0.2495715708984165,-0.2049145683419392,-0.1598266272779790,-0.1144025683439108,-0.0687379190383771,-0.0229287128254223,0.0229287128254227,0.0687379190383773,0.1144025683439112,0.1598266272779792,0.2049145683419393,0.2495715708984171,0.2937037205806391,0.3372182067958810,0.3800235179076745,0.4220296336863138,0.4631482146229393,0.5032927877090847,0.5423789282910035,0.5803244376163503,0.6170495156998838,0.6524769291446768,0.6865321735660129,0.7191436302764728,0.7502427169029167,0.7797640316188977,0.8076454906897087,0.8338284590416709,0.8582578735826598,0.8808823590174557,0.9016543359201078,0.9205301208479183,0.9374700183128010,0.9524384044796020,0.9654038025821998,0.9763389504003571,0.9852208614402450,0.9920308877424486,0.9967548366766642,0.9993838255297046};

static double w69[69] = {0.0007679884763960,0.0017862083696986,0.0028022899639357,0.0038127779656004,0.0048155030752076,0.0058083983053361,0.0067894303245378,0.0077565932717033,0.0087079106159849,0.0096414385644246,0.0105552698199362,0.0114475373953702,0.0123164183922710,0.0131601377084350,0.0139769716560935,0.0147652514789536,0.0155233667589456,0.0162497687048226,0.0169429733154161,0.0176015644108419,0.0182241965253503,0.0188095976558203,0.0193565718602464,0.0198640017008809,0.0203308505270307,0.0207561645928272,0.0211390750056401,0.0214787995011527,0.0217746440414634,0.0220260042329545,0.0222323665610230,0.0223933094391564,0.0225085040702002,0.0225777151180730,0.0226008011885396,0.0225777151180731,0.0225085040701995,0.0223933094391568,0.0222323665610237,0.0220260042329546,0.0217746440414636,0.0214787995011524,0.0211390750056404,0.0207561645928272,0.0203308505270306,0.0198640017008812,0.0193565718602466,0.0188095976558200,0.0182241965253502,0.0176015644108418,0.0169429733154158,0.0162497687048235,0.0155233667589452,0.0147652514789535,0.0139769716560939,0.0131601377084348,0.0123164183922712,0.0114475373953704,0.0105552698199364,0.0096414385644246,0.0087079106159850,0.0077565932717033,0.0067894303245377,0.0058083983053358,0.0048155030752079,0.0038127779656007,0.0028022899639356,0.0017862083696983,0.0007679884763960};
static double pts69[69] = {-0.9994014275432448,-0.9968475004851949,-0.9922582667168528,-0.9856420800226374,-0.9770123316220943,-0.9663866216428599,-0.9537866478051817,-0.9392381470416081,-0.9227708391804446,-0.9044183649858271,-0.8842182169472522,-0.8622116624727438,-0.8384436594805040,-0.8129627645002955,-0.7858210334467604,-0.7570739152558380,-0.7267801385960082,-0.6950015918829284,-0.6618031968410785,-0.6272527758698496,-0.5914209134845559,-0.5543808121151323,-0.5162081425569339,-0.4769808893790460,-0.4367791916058446,-0.3956851789972443,-0.3537828042620662,-0.3111576715472807,-0.2678968615535036,-0.2240887536339989,-0.1798228452406429,-0.1351895690856831,-0.0902801083928285,-0.0451862106151014,0.0000000000000000,0.0451862106151018,0.0902801083928289,0.1351895690856831,0.1798228452406433,0.2240887536339992,0.2678968615535036,0.3111576715472814,0.3537828042620667,0.3956851789972447,0.4367791916058444,0.4769808893790454,0.5162081425569334,0.5543808121151321,0.5914209134845558,0.6272527758698491,0.6618031968410785,0.6950015918829280,0.7267801385960080,0.7570739152558376,0.7858210334467594,0.8129627645002953,0.8384436594805045,0.8622116624727443,0.8842182169472521,0.9044183649858272,0.9227708391804449,0.9392381470416082,0.9537866478051816,0.9663866216428606,0.9770123316220944,0.9856420800226374,0.9922582667168530,0.9968475004851949,0.9994014275432448};

